digraph Tree {
node [shape=box] ;
0 [label="distinct_features <= 21.5\ngini = 0.482\nsamples = 33042\nvalue = [19655, 13387]\nclass = y[0]"] ;
1 [label="variables <= 2.5\ngini = 0.5\nsamples = 17118\nvalue = [8421, 8697]\nclass = y[1]"] ;
0 -> 1 [labeldistance=2.5, labelangle=45, headlabel="True"] ;
2 [label="constants <= 2.5\ngini = 0.45\nsamples = 1978\nvalue = [676, 1302]\nclass = y[1]"] ;
1 -> 2 ;
3 [label="distinct_features <= 9.5\ngini = 0.5\nsamples = 436\nvalue = [213, 223]\nclass = y[1]"] ;
2 -> 3 ;
4 [label="nodes_merged <= 12.5\ngini = 0.46\nsamples = 156\nvalue = [56, 100]\nclass = y[1]"] ;
3 -> 4 ;
5 [label="applications <= 2.5\ngini = 0.438\nsamples = 133\nvalue = [43, 90]\nclass = y[1]"] ;
4 -> 5 ;
6 [label="distinct_features <= 8.5\ngini = 0.428\nsamples = 129\nvalue = [40, 89]\nclass = y[1]"] ;
5 -> 6 ;
7 [label="variables <= 1.5\ngini = 0.358\nsamples = 60\nvalue = [14, 46]\nclass = y[1]"] ;
6 -> 7 ;
8 [label="distinct_features <= 7.5\ngini = 0.485\nsamples = 29\nvalue = [12, 17]\nclass = y[1]"] ;
7 -> 8 ;
9 [label="gini = 0.391\nsamples = 15\nvalue = [4, 11]\nclass = y[1]"] ;
8 -> 9 ;
10 [label="gini = 0.49\nsamples = 14\nvalue = [8, 6]\nclass = y[0]"] ;
8 -> 10 ;
11 [label="nodes <= 14.0\ngini = 0.121\nsamples = 31\nvalue = [2, 29]\nclass = y[1]"] ;
7 -> 11 ;
12 [label="gini = 0.346\nsamples = 9\nvalue = [2, 7]\nclass = y[1]"] ;
11 -> 12 ;
13 [label="gini = 0.0\nsamples = 22\nvalue = [0, 22]\nclass = y[1]"] ;
11 -> 13 ;
14 [label="functions <= 5.5\ngini = 0.47\nsamples = 69\nvalue = [26, 43]\nclass = y[1]"] ;
6 -> 14 ;
15 [label="nodes <= 25.0\ngini = 0.478\nsamples = 66\nvalue = [26, 40]\nclass = y[1]"] ;
14 -> 15 ;
16 [label="functions <= 4.0\ngini = 0.473\nsamples = 65\nvalue = [25, 40]\nclass = y[1]"] ;
15 -> 16 ;
17 [label="nodes <= 19.0\ngini = 0.479\nsamples = 63\nvalue = [25, 38]\nclass = y[1]"] ;
16 -> 17 ;
18 [label="variables <= 0.5\ngini = 0.473\nsamples = 60\nvalue = [23, 37]\nclass = y[1]"] ;
17 -> 18 ;
19 [label="gini = 0.219\nsamples = 8\nvalue = [1, 7]\nclass = y[1]"] ;
18 -> 19 ;
20 [label="constants <= 0.5\ngini = 0.488\nsamples = 52\nvalue = [22, 30]\nclass = y[1]"] ;
18 -> 20 ;
21 [label="gini = 0.444\nsamples = 3\nvalue = [2, 1]\nclass = y[0]"] ;
20 -> 21 ;
22 [label="functions <= 2.5\ngini = 0.483\nsamples = 49\nvalue = [20, 29]\nclass = y[1]"] ;
20 -> 22 ;
23 [label="constants <= 1.5\ngini = 0.478\nsamples = 43\nvalue = [17, 26]\nclass = y[1]"] ;
22 -> 23 ;
24 [label="lambdas <= 0.5\ngini = 0.485\nsamples = 41\nvalue = [17, 24]\nclass = y[1]"] ;
23 -> 24 ;
25 [label="gini = 0.489\nsamples = 40\nvalue = [17, 23]\nclass = y[1]"] ;
24 -> 25 ;
26 [label="gini = 0.0\nsamples = 1\nvalue = [0, 1]\nclass = y[1]"] ;
24 -> 26 ;
27 [label="gini = 0.0\nsamples = 2\nvalue = [0, 2]\nclass = y[1]"] ;
23 -> 27 ;
28 [label="gini = 0.5\nsamples = 6\nvalue = [3, 3]\nclass = y[0]"] ;
22 -> 28 ;
29 [label="gini = 0.444\nsamples = 3\nvalue = [2, 1]\nclass = y[0]"] ;
17 -> 29 ;
30 [label="gini = 0.0\nsamples = 2\nvalue = [0, 2]\nclass = y[1]"] ;
16 -> 30 ;
31 [label="gini = 0.0\nsamples = 1\nvalue = [1, 0]\nclass = y[0]"] ;
15 -> 31 ;
32 [label="gini = 0.0\nsamples = 3\nvalue = [0, 3]\nclass = y[1]"] ;
14 -> 32 ;
33 [label="gini = 0.375\nsamples = 4\nvalue = [3, 1]\nclass = y[0]"] ;
5 -> 33 ;
34 [label="functions <= 9.5\ngini = 0.491\nsamples = 23\nvalue = [13, 10]\nclass = y[0]"] ;
4 -> 34 ;
35 [label="gini = 0.432\nsamples = 19\nvalue = [13, 6]\nclass = y[0]"] ;
34 -> 35 ;
36 [label="gini = 0.0\nsamples = 4\nvalue = [0, 4]\nclass = y[1]"] ;
34 -> 36 ;
37 [label="nodes_merged <= 22.5\ngini = 0.493\nsamples = 280\nvalue = [157, 123]\nclass = y[0]"] ;
3 -> 37 ;
38 [label="functions <= 16.0\ngini = 0.496\nsamples = 271\nvalue = [148, 123]\nclass = y[0]"] ;
37 -> 38 ;
39 [label="nodes_merged <= 11.5\ngini = 0.494\nsamples = 267\nvalue = [148, 119]\nclass = y[0]"] ;
38 -> 39 ;
40 [label="functions <= 2.0\ngini = 0.375\nsamples = 24\nvalue = [18, 6]\nclass = y[0]"] ;
39 -> 40 ;
41 [label="gini = 0.0\nsamples = 4\nvalue = [4, 0]\nclass = y[0]"] ;
40 -> 41 ;
42 [label="nodes <= 19.0\ngini = 0.42\nsamples = 20\nvalue = [14, 6]\nclass = y[0]"] ;
40 -> 42 ;
43 [label="gini = 0.457\nsamples = 17\nvalue = [11, 6]\nclass = y[0]"] ;
42 -> 43 ;
44 [label="gini = 0.0\nsamples = 3\nvalue = [3, 0]\nclass = y[0]"] ;
42 -> 44 ;
45 [label="nodes_merged <= 13.5\ngini = 0.498\nsamples = 243\nvalue = [130, 113]\nclass = y[0]"] ;
39 -> 45 ;
46 [label="applications <= 1.5\ngini = 0.366\nsamples = 29\nvalue = [7, 22]\nclass = y[1]"] ;
45 -> 46 ;
47 [label="gini = 0.408\nsamples = 7\nvalue = [5, 2]\nclass = y[0]"] ;
46 -> 47 ;
48 [label="nodes <= 27.0\ngini = 0.165\nsamples = 22\nvalue = [2, 20]\nclass = y[1]"] ;
46 -> 48 ;
49 [label="gini = 0.278\nsamples = 12\nvalue = [2, 10]\nclass = y[1]"] ;
48 -> 49 ;
50 [label="gini = 0.0\nsamples = 10\nvalue = [0, 10]\nclass = y[1]"] ;
48 -> 50 ;
51 [label="variables <= 1.5\ngini = 0.489\nsamples = 214\nvalue = [123, 91]\nclass = y[0]"] ;
45 -> 51 ;
52 [label="distinct_features <= 11.5\ngini = 0.482\nsamples = 32\nvalue = [13, 19]\nclass = y[1]"] ;
51 -> 52 ;
53 [label="nodes <= 33.0\ngini = 0.499\nsamples = 25\nvalue = [13, 12]\nclass = y[0]"] ;
52 -> 53 ;
54 [label="nodes <= 21.0\ngini = 0.48\nsamples = 20\nvalue = [8, 12]\nclass = y[1]"] ;
53 -> 54 ;
55 [label="gini = 0.0\nsamples = 1\nvalue = [1, 0]\nclass = y[0]"] ;
54 -> 55 ;
56 [label="gini = 0.465\nsamples = 19\nvalue = [7, 12]\nclass = y[1]"] ;
54 -> 56 ;
57 [label="gini = 0.0\nsamples = 5\nvalue = [5, 0]\nclass = y[0]"] ;
53 -> 57 ;
58 [label="gini = 0.0\nsamples = 7\nvalue = [0, 7]\nclass = y[1]"] ;
52 -> 58 ;
59 [label="functions <= 4.5\ngini = 0.478\nsamples = 182\nvalue = [110, 72]\nclass = y[0]"] ;
51 -> 59 ;
60 [label="nodes <= 25.0\ngini = 0.412\nsamples = 62\nvalue = [44, 18]\nclass = y[0]"] ;
59 -> 60 ;
61 [label="functions <= 2.5\ngini = 0.499\nsamples = 25\nvalue = [13, 12]\nclass = y[0]"] ;
60 -> 61 ;
62 [label="gini = 0.245\nsamples = 7\nvalue = [6, 1]\nclass = y[0]"] ;
61 -> 62 ;
63 [label="gini = 0.475\nsamples = 18\nvalue = [7, 11]\nclass = y[1]"] ;
61 -> 63 ;
64 [label="functions <= 2.5\ngini = 0.272\nsamples = 37\nvalue = [31, 6]\nclass = y[0]"] ;
60 -> 64 ;
65 [label="gini = 0.375\nsamples = 4\nvalue = [1, 3]\nclass = y[1]"] ;
64 -> 65 ;
66 [label="lambdas <= 0.5\ngini = 0.165\nsamples = 33\nvalue = [30, 3]\nclass = y[0]"] ;
64 -> 66 ;
67 [label="nodes <= 39.0\ngini = 0.128\nsamples = 29\nvalue = [27, 2]\nclass = y[0]"] ;
66 -> 67 ;
68 [label="applications <= 2.5\ngini = 0.077\nsamples = 25\nvalue = [24, 1]\nclass = y[0]"] ;
67 -> 68 ;
69 [label="gini = 0.117\nsamples = 16\nvalue = [15, 1]\nclass = y[0]"] ;
68 -> 69 ;
70 [label="gini = 0.0\nsamples = 9\nvalue = [9, 0]\nclass = y[0]"] ;
68 -> 70 ;
71 [label="gini = 0.375\nsamples = 4\nvalue = [3, 1]\nclass = y[0]"] ;
67 -> 71 ;
72 [label="gini = 0.375\nsamples = 4\nvalue = [3, 1]\nclass = y[0]"] ;
66 -> 72 ;
73 [label="nodes <= 51.0\ngini = 0.495\nsamples = 120\nvalue = [66, 54]\nclass = y[0]"] ;
59 -> 73 ;
74 [label="nodes <= 43.0\ngini = 0.498\nsamples = 116\nvalue = [62, 54]\nclass = y[0]"] ;
73 -> 74 ;
75 [label="nodes_merged <= 18.5\ngini = 0.489\nsamples = 94\nvalue = [54, 40]\nclass = y[0]"] ;
74 -> 75 ;
76 [label="applications <= 2.5\ngini = 0.47\nsamples = 69\nvalue = [43, 26]\nclass = y[0]"] ;
75 -> 76 ;
77 [label="nodes <= 30.0\ngini = 0.49\nsamples = 56\nvalue = [32, 24]\nclass = y[0]"] ;
76 -> 77 ;
78 [label="gini = 0.469\nsamples = 16\nvalue = [6, 10]\nclass = y[1]"] ;
77 -> 78 ;
79 [label="nodes <= 36.0\ngini = 0.455\nsamples = 40\nvalue = [26, 14]\nclass = y[0]"] ;
77 -> 79 ;
80 [label="nodes_merged <= 14.5\ngini = 0.397\nsamples = 33\nvalue = [24, 9]\nclass = y[0]"] ;
79 -> 80 ;
81 [label="gini = 0.444\nsamples = 6\nvalue = [2, 4]\nclass = y[1]"] ;
80 -> 81 ;
82 [label="distinct_features <= 11.5\ngini = 0.302\nsamples = 27\nvalue = [22, 5]\nclass = y[0]"] ;
80 -> 82 ;
83 [label="gini = 0.105\nsamples = 18\nvalue = [17, 1]\nclass = y[0]"] ;
82 -> 83 ;
84 [label="gini = 0.494\nsamples = 9\nvalue = [5, 4]\nclass = y[0]"] ;
82 -> 84 ;
85 [label="gini = 0.408\nsamples = 7\nvalue = [2, 5]\nclass = y[1]"] ;
79 -> 85 ;
86 [label="gini = 0.26\nsamples = 13\nvalue = [11, 2]\nclass = y[0]"] ;
76 -> 86 ;
87 [label="distinct_features <= 11.5\ngini = 0.493\nsamples = 25\nvalue = [11, 14]\nclass = y[1]"] ;
75 -> 87 ;
88 [label="gini = 0.0\nsamples = 5\nvalue = [0, 5]\nclass = y[1]"] ;
87 -> 88 ;
89 [label="nodes <= 38.0\ngini = 0.495\nsamples = 20\nvalue = [11, 9]\nclass = y[0]"] ;
87 -> 89 ;
90 [label="gini = 0.496\nsamples = 11\nvalue = [5, 6]\nclass = y[1]"] ;
89 -> 90 ;
91 [label="gini = 0.444\nsamples = 9\nvalue = [6, 3]\nclass = y[0]"] ;
89 -> 91 ;
92 [label="nodes_merged <= 18.0\ngini = 0.463\nsamples = 22\nvalue = [8, 14]\nclass = y[1]"] ;
74 -> 92 ;
93 [label="gini = 0.0\nsamples = 4\nvalue = [0, 4]\nclass = y[1]"] ;
92 -> 93 ;
94 [label="gini = 0.494\nsamples = 18\nvalue = [8, 10]\nclass = y[1]"] ;
92 -> 94 ;
95 [label="gini = 0.0\nsamples = 4\nvalue = [4, 0]\nclass = y[0]"] ;
73 -> 95 ;
96 [label="gini = 0.0\nsamples = 4\nvalue = [0, 4]\nclass = y[1]"] ;
38 -> 96 ;
97 [label="gini = 0.0\nsamples = 9\nvalue = [9, 0]\nclass = y[0]"] ;
37 -> 97 ;
98 [label="distinct_features <= 11.5\ngini = 0.42\nsamples = 1542\nvalue = [463, 1079]\nclass = y[1]"] ;
2 -> 98 ;
99 [label="applications <= 6.5\ngini = 0.24\nsamples = 481\nvalue = [67, 414]\nclass = y[1]"] ;
98 -> 99 ;
100 [label="distinct_features <= 9.5\ngini = 0.321\nsamples = 323\nvalue = [65, 258]\nclass = y[1]"] ;
99 -> 100 ;
101 [label="nodes <= 20.0\ngini = 0.127\nsamples = 161\nvalue = [11, 150]\nclass = y[1]"] ;
100 -> 101 ;
102 [label="gini = 0.49\nsamples = 7\nvalue = [3, 4]\nclass = y[1]"] ;
101 -> 102 ;
103 [label="nodes_merged <= 18.5\ngini = 0.098\nsamples = 154\nvalue = [8, 146]\nclass = y[1]"] ;
101 -> 103 ;
104 [label="nodes <= 28.0\ngini = 0.066\nsamples = 146\nvalue = [5, 141]\nclass = y[1]"] ;
103 -> 104 ;
105 [label="constants <= 3.5\ngini = 0.14\nsamples = 53\nvalue = [4, 49]\nclass = y[1]"] ;
104 -> 105 ;
106 [label="nodes <= 26.0\ngini = 0.238\nsamples = 29\nvalue = [4, 25]\nclass = y[1]"] ;
105 -> 106 ;
107 [label="gini = 0.0\nsamples = 9\nvalue = [0, 9]\nclass = y[1]"] ;
106 -> 107 ;
108 [label="distinct_features <= 8.5\ngini = 0.32\nsamples = 20\nvalue = [4, 16]\nclass = y[1]"] ;
106 -> 108 ;
109 [label="gini = 0.42\nsamples = 10\nvalue = [3, 7]\nclass = y[1]"] ;
108 -> 109 ;
110 [label="gini = 0.18\nsamples = 10\nvalue = [1, 9]\nclass = y[1]"] ;
108 -> 110 ;
111 [label="gini = 0.0\nsamples = 24\nvalue = [0, 24]\nclass = y[1]"] ;
105 -> 111 ;
112 [label="variables <= 1.5\ngini = 0.021\nsamples = 93\nvalue = [1, 92]\nclass = y[1]"] ;
104 -> 112 ;
113 [label="gini = 0.0\nsamples = 71\nvalue = [0, 71]\nclass = y[1]"] ;
112 -> 113 ;
114 [label="constants <= 4.5\ngini = 0.087\nsamples = 22\nvalue = [1, 21]\nclass = y[1]"] ;
112 -> 114 ;
115 [label="gini = 0.0\nsamples = 5\nvalue = [0, 5]\nclass = y[1]"] ;
114 -> 115 ;
116 [label="gini = 0.111\nsamples = 17\nvalue = [1, 16]\nclass = y[1]"] ;
114 -> 116 ;
117 [label="gini = 0.469\nsamples = 8\nvalue = [3, 5]\nclass = y[1]"] ;
103 -> 117 ;
118 [label="nodes <= 38.0\ngini = 0.444\nsamples = 162\nvalue = [54, 108]\nclass = y[1]"] ;
100 -> 118 ;
119 [label="nodes_merged <= 17.5\ngini = 0.497\nsamples = 50\nvalue = [27, 23]\nclass = y[0]"] ;
118 -> 119 ;
120 [label="gini = 0.43\nsamples = 16\nvalue = [11, 5]\nclass = y[0]"] ;
119 -> 120 ;
121 [label="nodes <= 34.0\ngini = 0.498\nsamples = 34\nvalue = [16, 18]\nclass = y[1]"] ;
119 -> 121 ;
122 [label="variables <= 1.5\ngini = 0.455\nsamples = 20\nvalue = [7, 13]\nclass = y[1]"] ;
121 -> 122 ;
123 [label="gini = 0.463\nsamples = 11\nvalue = [7, 4]\nclass = y[0]"] ;
122 -> 123 ;
124 [label="gini = 0.0\nsamples = 9\nvalue = [0, 9]\nclass = y[1]"] ;
122 -> 124 ;
125 [label="gini = 0.459\nsamples = 14\nvalue = [9, 5]\nclass = y[0]"] ;
121 -> 125 ;
126 [label="nodes_merged <= 18.5\ngini = 0.366\nsamples = 112\nvalue = [27, 85]\nclass = y[1]"] ;
118 -> 126 ;
127 [label="applications <= 4.5\ngini = 0.124\nsamples = 30\nvalue = [2, 28]\nclass = y[1]"] ;
126 -> 127 ;
128 [label="nodes <= 44.0\ngini = 0.067\nsamples = 29\nvalue = [1, 28]\nclass = y[1]"] ;
127 -> 128 ;
129 [label="gini = 0.444\nsamples = 3\nvalue = [1, 2]\nclass = y[1]"] ;
128 -> 129 ;
130 [label="gini = 0.0\nsamples = 26\nvalue = [0, 26]\nclass = y[1]"] ;
128 -> 130 ;
131 [label="gini = 0.0\nsamples = 1\nvalue = [1, 0]\nclass = y[0]"] ;
127 -> 131 ;
132 [label="constants <= 4.5\ngini = 0.424\nsamples = 82\nvalue = [25, 57]\nclass = y[1]"] ;
126 -> 132 ;
133 [label="nodes <= 60.0\ngini = 0.493\nsamples = 34\nvalue = [15, 19]\nclass = y[1]"] ;
132 -> 133 ;
134 [label="nodes <= 51.0\ngini = 0.499\nsamples = 29\nvalue = [15, 14]\nclass = y[0]"] ;
133 -> 134 ;
135 [label="variables <= 0.5\ngini = 0.497\nsamples = 26\nvalue = [12, 14]\nclass = y[1]"] ;
134 -> 135 ;
136 [label="gini = 0.0\nsamples = 2\nvalue = [0, 2]\nclass = y[1]"] ;
135 -> 136 ;
137 [label="distinct_features <= 10.5\ngini = 0.5\nsamples = 24\nvalue = [12, 12]\nclass = y[0]"] ;
135 -> 137 ;
138 [label="gini = 0.0\nsamples = 2\nvalue = [2, 0]\nclass = y[0]"] ;
137 -> 138 ;
139 [label="nodes <= 42.0\ngini = 0.496\nsamples = 22\nvalue = [10, 12]\nclass = y[1]"] ;
137 -> 139 ;
140 [label="gini = 0.469\nsamples = 8\nvalue = [5, 3]\nclass = y[0]"] ;
139 -> 140 ;
141 [label="gini = 0.459\nsamples = 14\nvalue = [5, 9]\nclass = y[1]"] ;
139 -> 141 ;
142 [label="gini = 0.0\nsamples = 3\nvalue = [3, 0]\nclass = y[0]"] ;
134 -> 142 ;
143 [label="gini = 0.0\nsamples = 5\nvalue = [0, 5]\nclass = y[1]"] ;
133 -> 143 ;
144 [label="nodes_merged <= 25.0\ngini = 0.33\nsamples = 48\nvalue = [10, 38]\nclass = y[1]"] ;
132 -> 144 ;
145 [label="constants <= 5.5\ngini = 0.26\nsamples = 39\nvalue = [6, 33]\nclass = y[1]"] ;
144 -> 145 ;
146 [label="nodes_merged <= 19.5\ngini = 0.33\nsamples = 24\nvalue = [5, 19]\nclass = y[1]"] ;
145 -> 146 ;
147 [label="gini = 0.49\nsamples = 7\nvalue = [3, 4]\nclass = y[1]"] ;
146 -> 147 ;
148 [label="gini = 0.208\nsamples = 17\nvalue = [2, 15]\nclass = y[1]"] ;
146 -> 148 ;
149 [label="gini = 0.124\nsamples = 15\nvalue = [1, 14]\nclass = y[1]"] ;
145 -> 149 ;
150 [label="gini = 0.494\nsamples = 9\nvalue = [4, 5]\nclass = y[1]"] ;
144 -> 150 ;
151 [label="nodes_merged <= 29.0\ngini = 0.025\nsamples = 158\nvalue = [2, 156]\nclass = y[1]"] ;
99 -> 151 ;
152 [label="gini = 0.0\nsamples = 150\nvalue = [0, 150]\nclass = y[1]"] ;
151 -> 152 ;
153 [label="gini = 0.375\nsamples = 8\nvalue = [2, 6]\nclass = y[1]"] ;
151 -> 153 ;
154 [label="constants <= 5.5\ngini = 0.468\nsamples = 1061\nvalue = [396, 665]\nclass = y[1]"] ;
98 -> 154 ;
155 [label="variables <= 0.5\ngini = 0.497\nsamples = 393\nvalue = [181, 212]\nclass = y[1]"] ;
154 -> 155 ;
156 [label="gini = 0.0\nsamples = 13\nvalue = [0, 13]\nclass = y[1]"] ;
155 -> 156 ;
157 [label="functions <= 12.5\ngini = 0.499\nsamples = 380\nvalue = [181, 199]\nclass = y[1]"] ;
155 -> 157 ;
158 [label="nodes <= 60.0\ngini = 0.492\nsamples = 308\nvalue = [135, 173]\nclass = y[1]"] ;
157 -> 158 ;
159 [label="nodes_merged <= 23.5\ngini = 0.497\nsamples = 278\nvalue = [129, 149]\nclass = y[1]"] ;
158 -> 159 ;
160 [label="nodes_merged <= 22.5\ngini = 0.496\nsamples = 105\nvalue = [57, 48]\nclass = y[0]"] ;
159 -> 160 ;
161 [label="nodes <= 58.0\ngini = 0.492\nsamples = 71\nvalue = [31, 40]\nclass = y[1]"] ;
160 -> 161 ;
162 [label="lambdas <= 0.5\ngini = 0.498\nsamples = 66\nvalue = [31, 35]\nclass = y[1]"] ;
161 -> 162 ;
163 [label="functions <= 5.5\ngini = 0.499\nsamples = 52\nvalue = [27, 25]\nclass = y[0]"] ;
162 -> 163 ;
164 [label="nodes_merged <= 20.5\ngini = 0.483\nsamples = 27\nvalue = [11, 16]\nclass = y[1]"] ;
163 -> 164 ;
165 [label="gini = 0.375\nsamples = 8\nvalue = [2, 6]\nclass = y[1]"] ;
164 -> 165 ;
166 [label="gini = 0.499\nsamples = 19\nvalue = [9, 10]\nclass = y[1]"] ;
164 -> 166 ;
167 [label="distinct_features <= 12.5\ngini = 0.461\nsamples = 25\nvalue = [16, 9]\nclass = y[0]"] ;
163 -> 167 ;
168 [label="functions <= 7.5\ngini = 0.375\nsamples = 20\nvalue = [15, 5]\nclass = y[0]"] ;
167 -> 168 ;
169 [label="gini = 0.0\nsamples = 5\nvalue = [5, 0]\nclass = y[0]"] ;
168 -> 169 ;
170 [label="gini = 0.444\nsamples = 15\nvalue = [10, 5]\nclass = y[0]"] ;
168 -> 170 ;
171 [label="gini = 0.32\nsamples = 5\nvalue = [1, 4]\nclass = y[1]"] ;
167 -> 171 ;
172 [label="gini = 0.408\nsamples = 14\nvalue = [4, 10]\nclass = y[1]"] ;
162 -> 172 ;
173 [label="gini = 0.0\nsamples = 5\nvalue = [0, 5]\nclass = y[1]"] ;
161 -> 173 ;
174 [label="lambdas <= 0.5\ngini = 0.36\nsamples = 34\nvalue = [26, 8]\nclass = y[0]"] ;
160 -> 174 ;
175 [label="applications <= 4.5\ngini = 0.278\nsamples = 30\nvalue = [25, 5]\nclass = y[0]"] ;
174 -> 175 ;
176 [label="distinct_features <= 12.5\ngini = 0.095\nsamples = 20\nvalue = [19, 1]\nclass = y[0]"] ;
175 -> 176 ;
177 [label="gini = 0.375\nsamples = 4\nvalue = [3, 1]\nclass = y[0]"] ;
176 -> 177 ;
178 [label="gini = 0.0\nsamples = 16\nvalue = [16, 0]\nclass = y[0]"] ;
176 -> 178 ;
179 [label="gini = 0.48\nsamples = 10\nvalue = [6, 4]\nclass = y[0]"] ;
175 -> 179 ;
180 [label="gini = 0.375\nsamples = 4\nvalue = [1, 3]\nclass = y[1]"] ;
174 -> 180 ;
181 [label="nodes <= 40.0\ngini = 0.486\nsamples = 173\nvalue = [72, 101]\nclass = y[1]"] ;
159 -> 181 ;
182 [label="nodes_merged <= 24.5\ngini = 0.404\nsamples = 57\nvalue = [16, 41]\nclass = y[1]"] ;
181 -> 182 ;
183 [label="gini = 0.494\nsamples = 9\nvalue = [5, 4]\nclass = y[0]"] ;
182 -> 183 ;
184 [label="distinct_features <= 14.5\ngini = 0.353\nsamples = 48\nvalue = [11, 37]\nclass = y[1]"] ;
182 -> 184 ;
185 [label="functions <= 5.5\ngini = 0.381\nsamples = 43\nvalue = [11, 32]\nclass = y[1]"] ;
184 -> 185 ;
186 [label="gini = 0.459\nsamples = 14\nvalue = [5, 9]\nclass = y[1]"] ;
185 -> 186 ;
187 [label="nodes_merged <= 25.5\ngini = 0.328\nsamples = 29\nvalue = [6, 23]\nclass = y[1]"] ;
185 -> 187 ;
188 [label="gini = 0.0\nsamples = 6\nvalue = [0, 6]\nclass = y[1]"] ;
187 -> 188 ;
189 [label="nodes_merged <= 26.5\ngini = 0.386\nsamples = 23\nvalue = [6, 17]\nclass = y[1]"] ;
187 -> 189 ;
190 [label="gini = 0.5\nsamples = 4\nvalue = [2, 2]\nclass = y[0]"] ;
189 -> 190 ;
191 [label="gini = 0.332\nsamples = 19\nvalue = [4, 15]\nclass = y[1]"] ;
189 -> 191 ;
192 [label="gini = 0.0\nsamples = 5\nvalue = [0, 5]\nclass = y[1]"] ;
184 -> 192 ;
193 [label="functions <= 6.5\ngini = 0.499\nsamples = 116\nvalue = [56, 60]\nclass = y[1]"] ;
181 -> 193 ;
194 [label="constants <= 4.5\ngini = 0.455\nsamples = 40\nvalue = [26, 14]\nclass = y[0]"] ;
193 -> 194 ;
195 [label="gini = 0.245\nsamples = 7\nvalue = [1, 6]\nclass = y[1]"] ;
194 -> 195 ;
196 [label="applications <= 6.5\ngini = 0.367\nsamples = 33\nvalue = [25, 8]\nclass = y[0]"] ;
194 -> 196 ;
197 [label="nodes_merged <= 33.5\ngini = 0.32\nsamples = 30\nvalue = [24, 6]\nclass = y[0]"] ;
196 -> 197 ;
198 [label="nodes <= 52.0\ngini = 0.285\nsamples = 29\nvalue = [24, 5]\nclass = y[0]"] ;
197 -> 198 ;
199 [label="gini = 0.426\nsamples = 13\nvalue = [9, 4]\nclass = y[0]"] ;
198 -> 199 ;
200 [label="gini = 0.117\nsamples = 16\nvalue = [15, 1]\nclass = y[0]"] ;
198 -> 200 ;
201 [label="gini = 0.0\nsamples = 1\nvalue = [0, 1]\nclass = y[1]"] ;
197 -> 201 ;
202 [label="gini = 0.444\nsamples = 3\nvalue = [1, 2]\nclass = y[1]"] ;
196 -> 202 ;
203 [label="functions <= 8.5\ngini = 0.478\nsamples = 76\nvalue = [30, 46]\nclass = y[1]"] ;
193 -> 203 ;
204 [label="nodes <= 42.0\ngini = 0.337\nsamples = 28\nvalue = [6, 22]\nclass = y[1]"] ;
203 -> 204 ;
205 [label="gini = 0.0\nsamples = 1\nvalue = [1, 0]\nclass = y[0]"] ;
204 -> 205 ;
206 [label="constants <= 3.5\ngini = 0.302\nsamples = 27\nvalue = [5, 22]\nclass = y[1]"] ;
204 -> 206 ;
207 [label="gini = 0.43\nsamples = 16\nvalue = [5, 11]\nclass = y[1]"] ;
206 -> 207 ;
208 [label="gini = 0.0\nsamples = 11\nvalue = [0, 11]\nclass = y[1]"] ;
206 -> 208 ;
209 [label="lambdas <= 0.5\ngini = 0.5\nsamples = 48\nvalue = [24, 24]\nclass = y[0]"] ;
203 -> 209 ;
210 [label="functions <= 9.5\ngini = 0.492\nsamples = 39\nvalue = [22, 17]\nclass = y[0]"] ;
209 -> 210 ;
211 [label="gini = 0.484\nsamples = 17\nvalue = [7, 10]\nclass = y[1]"] ;
210 -> 211 ;
212 [label="variables <= 1.5\ngini = 0.434\nsamples = 22\nvalue = [15, 7]\nclass = y[0]"] ;
210 -> 212 ;
213 [label="gini = 0.444\nsamples = 3\nvalue = [1, 2]\nclass = y[1]"] ;
212 -> 213 ;
214 [label="gini = 0.388\nsamples = 19\nvalue = [14, 5]\nclass = y[0]"] ;
212 -> 214 ;
215 [label="gini = 0.346\nsamples = 9\nvalue = [2, 7]\nclass = y[1]"] ;
209 -> 215 ;
216 [label="applications <= 4.5\ngini = 0.32\nsamples = 30\nvalue = [6, 24]\nclass = y[1]"] ;
158 -> 216 ;
217 [label="gini = 0.0\nsamples = 12\nvalue = [0, 12]\nclass = y[1]"] ;
216 -> 217 ;
218 [label="gini = 0.444\nsamples = 18\nvalue = [6, 12]\nclass = y[1]"] ;
216 -> 218 ;
219 [label="nodes <= 60.0\ngini = 0.461\nsamples = 72\nvalue = [46, 26]\nclass = y[0]"] ;
157 -> 219 ;
220 [label="gini = 0.32\nsamples = 5\nvalue = [1, 4]\nclass = y[1]"] ;
219 -> 220 ;
221 [label="nodes_merged <= 23.0\ngini = 0.441\nsamples = 67\nvalue = [45, 22]\nclass = y[0]"] ;
219 -> 221 ;
222 [label="gini = 0.32\nsamples = 5\nvalue = [1, 4]\nclass = y[1]"] ;
221 -> 222 ;
223 [label="distinct_features <= 13.5\ngini = 0.412\nsamples = 62\nvalue = [44, 18]\nclass = y[0]"] ;
221 -> 223 ;
224 [label="lambdas <= 0.5\ngini = 0.26\nsamples = 26\nvalue = [22, 4]\nclass = y[0]"] ;
223 -> 224 ;
225 [label="constants <= 3.5\ngini = 0.211\nsamples = 25\nvalue = [22, 3]\nclass = y[0]"] ;
224 -> 225 ;
226 [label="gini = 0.48\nsamples = 5\nvalue = [3, 2]\nclass = y[0]"] ;
225 -> 226 ;
227 [label="nodes <= 85.0\ngini = 0.095\nsamples = 20\nvalue = [19, 1]\nclass = y[0]"] ;
225 -> 227 ;
228 [label="gini = 0.0\nsamples = 15\nvalue = [15, 0]\nclass = y[0]"] ;
227 -> 228 ;
229 [label="gini = 0.32\nsamples = 5\nvalue = [4, 1]\nclass = y[0]"] ;
227 -> 229 ;
230 [label="gini = 0.0\nsamples = 1\nvalue = [0, 1]\nclass = y[1]"] ;
224 -> 230 ;
231 [label="nodes <= 64.0\ngini = 0.475\nsamples = 36\nvalue = [22, 14]\nclass = y[0]"] ;
223 -> 231 ;
232 [label="gini = 0.0\nsamples = 2\nvalue = [0, 2]\nclass = y[1]"] ;
231 -> 232 ;
233 [label="nodes <= 86.0\ngini = 0.457\nsamples = 34\nvalue = [22, 12]\nclass = y[0]"] ;
231 -> 233 ;
234 [label="nodes <= 80.0\ngini = 0.42\nsamples = 30\nvalue = [21, 9]\nclass = y[0]"] ;
233 -> 234 ;
235 [label="nodes_merged <= 26.5\ngini = 0.483\nsamples = 22\nvalue = [13, 9]\nclass = y[0]"] ;
234 -> 235 ;
236 [label="gini = 0.32\nsamples = 5\nvalue = [1, 4]\nclass = y[1]"] ;
235 -> 236 ;
237 [label="gini = 0.415\nsamples = 17\nvalue = [12, 5]\nclass = y[0]"] ;
235 -> 237 ;
238 [label="gini = 0.0\nsamples = 8\nvalue = [8, 0]\nclass = y[0]"] ;
234 -> 238 ;
239 [label="gini = 0.375\nsamples = 4\nvalue = [1, 3]\nclass = y[1]"] ;
233 -> 239 ;
240 [label="nodes_merged <= 36.5\ngini = 0.437\nsamples = 668\nvalue = [215, 453]\nclass = y[1]"] ;
154 -> 240 ;
241 [label="distinct_features <= 15.5\ngini = 0.357\nsamples = 327\nvalue = [76, 251]\nclass = y[1]"] ;
240 -> 241 ;
242 [label="functions <= 20.5\ngini = 0.323\nsamples = 267\nvalue = [54, 213]\nclass = y[1]"] ;
241 -> 242 ;
243 [label="nodes <= 82.0\ngini = 0.296\nsamples = 249\nvalue = [45, 204]\nclass = y[1]"] ;
242 -> 243 ;
244 [label="nodes <= 78.0\ngini = 0.327\nsamples = 204\nvalue = [42, 162]\nclass = y[1]"] ;
243 -> 244 ;
245 [label="nodes <= 40.0\ngini = 0.305\nsamples = 192\nvalue = [36, 156]\nclass = y[1]"] ;
244 -> 245 ;
246 [label="gini = 0.49\nsamples = 7\nvalue = [3, 4]\nclass = y[1]"] ;
245 -> 246 ;
247 [label="constants <= 7.5\ngini = 0.293\nsamples = 185\nvalue = [33, 152]\nclass = y[1]"] ;
245 -> 247 ;
248 [label="distinct_features <= 13.5\ngini = 0.221\nsamples = 79\nvalue = [10, 69]\nclass = y[1]"] ;
247 -> 248 ;
249 [label="nodes_merged <= 25.5\ngini = 0.337\nsamples = 28\nvalue = [6, 22]\nclass = y[1]"] ;
248 -> 249 ;
250 [label="gini = 0.0\nsamples = 10\nvalue = [0, 10]\nclass = y[1]"] ;
249 -> 250 ;
251 [label="gini = 0.444\nsamples = 18\nvalue = [6, 12]\nclass = y[1]"] ;
249 -> 251 ;
252 [label="nodes_merged <= 29.5\ngini = 0.145\nsamples = 51\nvalue = [4, 47]\nclass = y[1]"] ;
248 -> 252 ;
253 [label="gini = 0.0\nsamples = 16\nvalue = [0, 16]\nclass = y[1]"] ;
252 -> 253 ;
254 [label="nodes_merged <= 31.5\ngini = 0.202\nsamples = 35\nvalue = [4, 31]\nclass = y[1]"] ;
252 -> 254 ;
255 [label="gini = 0.397\nsamples = 11\nvalue = [3, 8]\nclass = y[1]"] ;
254 -> 255 ;
256 [label="nodes <= 52.0\ngini = 0.08\nsamples = 24\nvalue = [1, 23]\nclass = y[1]"] ;
254 -> 256 ;
257 [label="gini = 0.124\nsamples = 15\nvalue = [1, 14]\nclass = y[1]"] ;
256 -> 257 ;
258 [label="gini = 0.0\nsamples = 9\nvalue = [0, 9]\nclass = y[1]"] ;
256 -> 258 ;
259 [label="nodes_merged <= 25.5\ngini = 0.34\nsamples = 106\nvalue = [23, 83]\nclass = y[1]"] ;
247 -> 259 ;
260 [label="gini = 0.444\nsamples = 3\nvalue = [2, 1]\nclass = y[0]"] ;
259 -> 260 ;
261 [label="functions <= 13.5\ngini = 0.325\nsamples = 103\nvalue = [21, 82]\nclass = y[1]"] ;
259 -> 261 ;
262 [label="nodes <= 67.0\ngini = 0.315\nsamples = 102\nvalue = [20, 82]\nclass = y[1]"] ;
261 -> 262 ;
263 [label="distinct_features <= 13.5\ngini = 0.356\nsamples = 69\nvalue = [16, 53]\nclass = y[1]"] ;
262 -> 263 ;
264 [label="nodes_merged <= 28.5\ngini = 0.238\nsamples = 29\nvalue = [4, 25]\nclass = y[1]"] ;
263 -> 264 ;
265 [label="gini = 0.346\nsamples = 18\nvalue = [4, 14]\nclass = y[1]"] ;
264 -> 265 ;
266 [label="gini = 0.0\nsamples = 11\nvalue = [0, 11]\nclass = y[1]"] ;
264 -> 266 ;
267 [label="nodes_merged <= 29.5\ngini = 0.42\nsamples = 40\nvalue = [12, 28]\nclass = y[1]"] ;
263 -> 267 ;
268 [label="gini = 0.375\nsamples = 4\nvalue = [3, 1]\nclass = y[0]"] ;
267 -> 268 ;
269 [label="distinct_features <= 14.5\ngini = 0.375\nsamples = 36\nvalue = [9, 27]\nclass = y[1]"] ;
267 -> 269 ;
270 [label="gini = 0.432\nsamples = 19\nvalue = [6, 13]\nclass = y[1]"] ;
269 -> 270 ;
271 [label="gini = 0.291\nsamples = 17\nvalue = [3, 14]\nclass = y[1]"] ;
269 -> 271 ;
272 [label="nodes_merged <= 35.5\ngini = 0.213\nsamples = 33\nvalue = [4, 29]\nclass = y[1]"] ;
262 -> 272 ;
273 [label="constants <= 10.5\ngini = 0.128\nsamples = 29\nvalue = [2, 27]\nclass = y[1]"] ;
272 -> 273 ;
274 [label="gini = 0.231\nsamples = 15\nvalue = [2, 13]\nclass = y[1]"] ;
273 -> 274 ;
275 [label="gini = 0.0\nsamples = 14\nvalue = [0, 14]\nclass = y[1]"] ;
273 -> 275 ;
276 [label="gini = 0.5\nsamples = 4\nvalue = [2, 2]\nclass = y[0]"] ;
272 -> 276 ;
277 [label="gini = 0.0\nsamples = 1\nvalue = [1, 0]\nclass = y[0]"] ;
261 -> 277 ;
278 [label="gini = 0.5\nsamples = 12\nvalue = [6, 6]\nclass = y[0]"] ;
244 -> 278 ;
279 [label="functions <= 19.5\ngini = 0.124\nsamples = 45\nvalue = [3, 42]\nclass = y[1]"] ;
243 -> 279 ;
280 [label="functions <= 14.5\ngini = 0.053\nsamples = 37\nvalue = [1, 36]\nclass = y[1]"] ;
279 -> 280 ;
281 [label="gini = 0.198\nsamples = 9\nvalue = [1, 8]\nclass = y[1]"] ;
280 -> 281 ;
282 [label="gini = 0.0\nsamples = 28\nvalue = [0, 28]\nclass = y[1]"] ;
280 -> 282 ;
283 [label="gini = 0.375\nsamples = 8\nvalue = [2, 6]\nclass = y[1]"] ;
279 -> 283 ;
284 [label="gini = 0.5\nsamples = 18\nvalue = [9, 9]\nclass = y[0]"] ;
242 -> 284 ;
285 [label="functions <= 8.5\ngini = 0.464\nsamples = 60\nvalue = [22, 38]\nclass = y[1]"] ;
241 -> 285 ;
286 [label="applications <= 6.5\ngini = 0.497\nsamples = 24\nvalue = [13, 11]\nclass = y[0]"] ;
285 -> 286 ;
287 [label="gini = 0.219\nsamples = 8\nvalue = [1, 7]\nclass = y[1]"] ;
286 -> 287 ;
288 [label="gini = 0.375\nsamples = 16\nvalue = [12, 4]\nclass = y[0]"] ;
286 -> 288 ;
289 [label="nodes <= 74.0\ngini = 0.375\nsamples = 36\nvalue = [9, 27]\nclass = y[1]"] ;
285 -> 289 ;
290 [label="gini = 0.105\nsamples = 18\nvalue = [1, 17]\nclass = y[1]"] ;
289 -> 290 ;
291 [label="gini = 0.494\nsamples = 18\nvalue = [8, 10]\nclass = y[1]"] ;
289 -> 291 ;
292 [label="distinct_features <= 20.5\ngini = 0.483\nsamples = 341\nvalue = [139, 202]\nclass = y[1]"] ;
240 -> 292 ;
293 [label="constants <= 6.5\ngini = 0.475\nsamples = 322\nvalue = [125, 197]\nclass = y[1]"] ;
292 -> 293 ;
294 [label="gini = 0.0\nsamples = 6\nvalue = [6, 0]\nclass = y[0]"] ;
293 -> 294 ;
295 [label="constants <= 21.5\ngini = 0.47\nsamples = 316\nvalue = [119, 197]\nclass = y[1]"] ;
293 -> 295 ;
296 [label="constants <= 13.5\ngini = 0.455\nsamples = 283\nvalue = [99, 184]\nclass = y[1]"] ;
295 -> 296 ;
297 [label="nodes <= 117.0\ngini = 0.485\nsamples = 182\nvalue = [75, 107]\nclass = y[1]"] ;
296 -> 297 ;
298 [label="functions <= 11.5\ngini = 0.473\nsamples = 159\nvalue = [61, 98]\nclass = y[1]"] ;
297 -> 298 ;
299 [label="nodes <= 93.0\ngini = 0.5\nsamples = 51\nvalue = [25, 26]\nclass = y[1]"] ;
298 -> 299 ;
300 [label="nodes <= 54.0\ngini = 0.494\nsamples = 45\nvalue = [25, 20]\nclass = y[0]"] ;
299 -> 300 ;
301 [label="gini = 0.0\nsamples = 3\nvalue = [0, 3]\nclass = y[1]"] ;
300 -> 301 ;
302 [label="nodes_merged <= 39.5\ngini = 0.482\nsamples = 42\nvalue = [25, 17]\nclass = y[0]"] ;
300 -> 302 ;
303 [label="applications <= 6.5\ngini = 0.397\nsamples = 22\nvalue = [16, 6]\nclass = y[0]"] ;
302 -> 303 ;
304 [label="gini = 0.0\nsamples = 1\nvalue = [0, 1]\nclass = y[1]"] ;
303 -> 304 ;
305 [label="applications <= 9.5\ngini = 0.363\nsamples = 21\nvalue = [16, 5]\nclass = y[0]"] ;
303 -> 305 ;
306 [label="gini = 0.245\nsamples = 14\nvalue = [12, 2]\nclass = y[0]"] ;
305 -> 306 ;
307 [label="gini = 0.49\nsamples = 7\nvalue = [4, 3]\nclass = y[0]"] ;
305 -> 307 ;
308 [label="functions <= 10.5\ngini = 0.495\nsamples = 20\nvalue = [9, 11]\nclass = y[1]"] ;
302 -> 308 ;
309 [label="gini = 0.397\nsamples = 11\nvalue = [3, 8]\nclass = y[1]"] ;
308 -> 309 ;
310 [label="gini = 0.444\nsamples = 9\nvalue = [6, 3]\nclass = y[0]"] ;
308 -> 310 ;
311 [label="gini = 0.0\nsamples = 6\nvalue = [0, 6]\nclass = y[1]"] ;
299 -> 311 ;
312 [label="nodes_merged <= 38.5\ngini = 0.444\nsamples = 108\nvalue = [36, 72]\nclass = y[1]"] ;
298 -> 312 ;
313 [label="applications <= 10.5\ngini = 0.211\nsamples = 25\nvalue = [3, 22]\nclass = y[1]"] ;
312 -> 313 ;
314 [label="gini = 0.0\nsamples = 13\nvalue = [0, 13]\nclass = y[1]"] ;
313 -> 314 ;
315 [label="gini = 0.375\nsamples = 12\nvalue = [3, 9]\nclass = y[1]"] ;
313 -> 315 ;
316 [label="nodes <= 110.0\ngini = 0.479\nsamples = 83\nvalue = [33, 50]\nclass = y[1]"] ;
312 -> 316 ;
317 [label="nodes <= 102.0\ngini = 0.491\nsamples = 74\nvalue = [32, 42]\nclass = y[1]"] ;
316 -> 317 ;
318 [label="functions <= 18.5\ngini = 0.47\nsamples = 61\nvalue = [23, 38]\nclass = y[1]"] ;
317 -> 318 ;
319 [label="nodes <= 84.0\ngini = 0.444\nsamples = 54\nvalue = [18, 36]\nclass = y[1]"] ;
318 -> 319 ;
320 [label="distinct_features <= 18.5\ngini = 0.491\nsamples = 30\nvalue = [13, 17]\nclass = y[1]"] ;
319 -> 320 ;
321 [label="applications <= 11.5\ngini = 0.466\nsamples = 27\nvalue = [10, 17]\nclass = y[1]"] ;
320 -> 321 ;
322 [label="gini = 0.355\nsamples = 13\nvalue = [3, 10]\nclass = y[1]"] ;
321 -> 322 ;
323 [label="gini = 0.5\nsamples = 14\nvalue = [7, 7]\nclass = y[0]"] ;
321 -> 323 ;
324 [label="gini = 0.0\nsamples = 3\nvalue = [3, 0]\nclass = y[0]"] ;
320 -> 324 ;
325 [label="constants <= 7.5\ngini = 0.33\nsamples = 24\nvalue = [5, 19]\nclass = y[1]"] ;
319 -> 325 ;
326 [label="gini = 0.0\nsamples = 1\nvalue = [1, 0]\nclass = y[0]"] ;
325 -> 326 ;
327 [label="functions <= 14.5\ngini = 0.287\nsamples = 23\nvalue = [4, 19]\nclass = y[1]"] ;
325 -> 327 ;
328 [label="gini = 0.426\nsamples = 13\nvalue = [4, 9]\nclass = y[1]"] ;
327 -> 328 ;
329 [label="gini = 0.0\nsamples = 10\nvalue = [0, 10]\nclass = y[1]"] ;
327 -> 329 ;
330 [label="gini = 0.408\nsamples = 7\nvalue = [5, 2]\nclass = y[0]"] ;
318 -> 330 ;
331 [label="gini = 0.426\nsamples = 13\nvalue = [9, 4]\nclass = y[0]"] ;
317 -> 331 ;
332 [label="gini = 0.198\nsamples = 9\nvalue = [1, 8]\nclass = y[1]"] ;
316 -> 332 ;
333 [label="nodes <= 171.0\ngini = 0.476\nsamples = 23\nvalue = [14, 9]\nclass = y[0]"] ;
297 -> 333 ;
334 [label="nodes_merged <= 49.5\ngini = 0.444\nsamples = 21\nvalue = [14, 7]\nclass = y[0]"] ;
333 -> 334 ;
335 [label="gini = 0.36\nsamples = 17\nvalue = [13, 4]\nclass = y[0]"] ;
334 -> 335 ;
336 [label="gini = 0.375\nsamples = 4\nvalue = [1, 3]\nclass = y[1]"] ;
334 -> 336 ;
337 [label="gini = 0.0\nsamples = 2\nvalue = [0, 2]\nclass = y[1]"] ;
333 -> 337 ;
338 [label="functions <= 52.0\ngini = 0.362\nsamples = 101\nvalue = [24, 77]\nclass = y[1]"] ;
296 -> 338 ;
339 [label="functions <= 25.5\ngini = 0.346\nsamples = 99\nvalue = [22, 77]\nclass = y[1]"] ;
338 -> 339 ;
340 [label="nodes <= 165.0\ngini = 0.381\nsamples = 86\nvalue = [22, 64]\nclass = y[1]"] ;
339 -> 340 ;
341 [label="nodes_merged <= 49.5\ngini = 0.363\nsamples = 84\nvalue = [20, 64]\nclass = y[1]"] ;
340 -> 341 ;
342 [label="nodes_merged <= 40.5\ngini = 0.309\nsamples = 68\nvalue = [13, 55]\nclass = y[1]"] ;
341 -> 342 ;
343 [label="functions <= 16.5\ngini = 0.452\nsamples = 29\nvalue = [10, 19]\nclass = y[1]"] ;
342 -> 343 ;
344 [label="gini = 0.499\nsamples = 19\nvalue = [9, 10]\nclass = y[1]"] ;
343 -> 344 ;
345 [label="gini = 0.18\nsamples = 10\nvalue = [1, 9]\nclass = y[1]"] ;
343 -> 345 ;
346 [label="nodes <= 101.0\ngini = 0.142\nsamples = 39\nvalue = [3, 36]\nclass = y[1]"] ;
342 -> 346 ;
347 [label="gini = 0.278\nsamples = 12\nvalue = [2, 10]\nclass = y[1]"] ;
346 -> 347 ;
348 [label="applications <= 21.5\ngini = 0.071\nsamples = 27\nvalue = [1, 26]\nclass = y[1]"] ;
346 -> 348 ;
349 [label="gini = 0.0\nsamples = 21\nvalue = [0, 21]\nclass = y[1]"] ;
348 -> 349 ;
350 [label="gini = 0.278\nsamples = 6\nvalue = [1, 5]\nclass = y[1]"] ;
348 -> 350 ;
351 [label="gini = 0.492\nsamples = 16\nvalue = [7, 9]\nclass = y[1]"] ;
341 -> 351 ;
352 [label="gini = 0.0\nsamples = 2\nvalue = [2, 0]\nclass = y[0]"] ;
340 -> 352 ;
353 [label="gini = 0.0\nsamples = 13\nvalue = [0, 13]\nclass = y[1]"] ;
339 -> 353 ;
354 [label="gini = 0.0\nsamples = 2\nvalue = [2, 0]\nclass = y[0]"] ;
338 -> 354 ;
355 [label="variables <= 1.5\ngini = 0.478\nsamples = 33\nvalue = [20, 13]\nclass = y[0]"] ;
295 -> 355 ;
356 [label="gini = 0.459\nsamples = 14\nvalue = [5, 9]\nclass = y[1]"] ;
355 -> 356 ;
357 [label="gini = 0.332\nsamples = 19\nvalue = [15, 4]\nclass = y[0]"] ;
355 -> 357 ;
358 [label="gini = 0.388\nsamples = 19\nvalue = [14, 5]\nclass = y[0]"] ;
292 -> 358 ;
359 [label="lambdas <= 2.5\ngini = 0.5\nsamples = 15140\nvalue = [7745, 7395]\nclass = y[0]"] ;
1 -> 359 ;
360 [label="nodes_merged <= 49.5\ngini = 0.498\nsamples = 11454\nvalue = [6092, 5362]\nclass = y[0]"] ;
359 -> 360 ;
361 [label="constants <= 8.5\ngini = 0.5\nsamples = 7668\nvalue = [3865, 3803]\nclass = y[0]"] ;
360 -> 361 ;
362 [label="lambdas <= 0.5\ngini = 0.497\nsamples = 5196\nvalue = [2787, 2409]\nclass = y[0]"] ;
361 -> 362 ;
363 [label="variables <= 11.5\ngini = 0.488\nsamples = 2871\nvalue = [1659, 1212]\nclass = y[0]"] ;
362 -> 363 ;
364 [label="distinct_features <= 9.5\ngini = 0.486\nsamples = 2828\nvalue = [1650, 1178]\nclass = y[0]"] ;
363 -> 364 ;
365 [label="constants <= 1.5\ngini = 0.344\nsamples = 86\nvalue = [67, 19]\nclass = y[0]"] ;
364 -> 365 ;
366 [label="gini = 0.469\nsamples = 16\nvalue = [6, 10]\nclass = y[1]"] ;
365 -> 366 ;
367 [label="constants <= 3.5\ngini = 0.224\nsamples = 70\nvalue = [61, 9]\nclass = y[0]"] ;
365 -> 367 ;
368 [label="nodes_merged <= 17.5\ngini = 0.408\nsamples = 21\nvalue = [15, 6]\nclass = y[0]"] ;
367 -> 368 ;
369 [label="gini = 0.0\nsamples = 13\nvalue = [13, 0]\nclass = y[0]"] ;
368 -> 369 ;
370 [label="gini = 0.375\nsamples = 8\nvalue = [2, 6]\nclass = y[1]"] ;
368 -> 370 ;
371 [label="constants <= 6.5\ngini = 0.115\nsamples = 49\nvalue = [46, 3]\nclass = y[0]"] ;
367 -> 371 ;
372 [label="applications <= 10.5\ngini = 0.059\nsamples = 33\nvalue = [32, 1]\nclass = y[0]"] ;
371 -> 372 ;
373 [label="gini = 0.0\nsamples = 29\nvalue = [29, 0]\nclass = y[0]"] ;
372 -> 373 ;
374 [label="gini = 0.375\nsamples = 4\nvalue = [3, 1]\nclass = y[0]"] ;
372 -> 374 ;
375 [label="gini = 0.219\nsamples = 16\nvalue = [14, 2]\nclass = y[0]"] ;
371 -> 375 ;
376 [label="distinct_features <= 12.5\ngini = 0.488\nsamples = 2742\nvalue = [1583, 1159]\nclass = y[0]"] ;
364 -> 376 ;
377 [label="functions <= 19.5\ngini = 0.5\nsamples = 779\nvalue = [401, 378]\nclass = y[0]"] ;
376 -> 377 ;
378 [label="nodes_merged <= 21.5\ngini = 0.496\nsamples = 688\nvalue = [375, 313]\nclass = y[0]"] ;
377 -> 378 ;
379 [label="applications <= 3.5\ngini = 0.496\nsamples = 203\nvalue = [92, 111]\nclass = y[1]"] ;
378 -> 379 ;
380 [label="functions <= 2.5\ngini = 0.417\nsamples = 27\nvalue = [19, 8]\nclass = y[0]"] ;
379 -> 380 ;
381 [label="gini = 0.0\nsamples = 1\nvalue = [0, 1]\nclass = y[1]"] ;
380 -> 381 ;
382 [label="distinct_features <= 10.5\ngini = 0.393\nsamples = 26\nvalue = [19, 7]\nclass = y[0]"] ;
380 -> 382 ;
383 [label="gini = 0.278\nsamples = 12\nvalue = [10, 2]\nclass = y[0]"] ;
382 -> 383 ;
384 [label="gini = 0.459\nsamples = 14\nvalue = [9, 5]\nclass = y[0]"] ;
382 -> 384 ;
385 [label="nodes_merged <= 19.5\ngini = 0.485\nsamples = 176\nvalue = [73, 103]\nclass = y[1]"] ;
379 -> 385 ;
386 [label="functions <= 3.5\ngini = 0.388\nsamples = 57\nvalue = [15, 42]\nclass = y[1]"] ;
385 -> 386 ;
387 [label="gini = 0.0\nsamples = 2\nvalue = [2, 0]\nclass = y[0]"] ;
386 -> 387 ;
388 [label="nodes <= 44.0\ngini = 0.361\nsamples = 55\nvalue = [13, 42]\nclass = y[1]"] ;
386 -> 388 ;
389 [label="constants <= 3.5\ngini = 0.395\nsamples = 48\nvalue = [13, 35]\nclass = y[1]"] ;
388 -> 389 ;
390 [label="nodes_merged <= 16.5\ngini = 0.38\nsamples = 47\nvalue = [12, 35]\nclass = y[1]"] ;
389 -> 390 ;
391 [label="gini = 0.0\nsamples = 6\nvalue = [0, 6]\nclass = y[1]"] ;
390 -> 391 ;
392 [label="applications <= 4.5\ngini = 0.414\nsamples = 41\nvalue = [12, 29]\nclass = y[1]"] ;
390 -> 392 ;
393 [label="nodes <= 37.0\ngini = 0.452\nsamples = 29\nvalue = [10, 19]\nclass = y[1]"] ;
392 -> 393 ;
394 [label="nodes_merged <= 18.5\ngini = 0.408\nsamples = 21\nvalue = [6, 15]\nclass = y[1]"] ;
393 -> 394 ;
395 [label="gini = 0.457\nsamples = 17\nvalue = [6, 11]\nclass = y[1]"] ;
394 -> 395 ;
396 [label="gini = 0.0\nsamples = 4\nvalue = [0, 4]\nclass = y[1]"] ;
394 -> 396 ;
397 [label="gini = 0.5\nsamples = 8\nvalue = [4, 4]\nclass = y[0]"] ;
393 -> 397 ;
398 [label="gini = 0.278\nsamples = 12\nvalue = [2, 10]\nclass = y[1]"] ;
392 -> 398 ;
399 [label="gini = 0.0\nsamples = 1\nvalue = [1, 0]\nclass = y[0]"] ;
389 -> 399 ;
400 [label="gini = 0.0\nsamples = 7\nvalue = [0, 7]\nclass = y[1]"] ;
388 -> 400 ;
401 [label="functions <= 4.5\ngini = 0.5\nsamples = 119\nvalue = [58, 61]\nclass = y[1]"] ;
385 -> 401 ;
402 [label="nodes_merged <= 20.5\ngini = 0.32\nsamples = 25\nvalue = [20, 5]\nclass = y[0]"] ;
401 -> 402 ;
403 [label="distinct_features <= 10.5\ngini = 0.18\nsamples = 20\nvalue = [18, 2]\nclass = y[0]"] ;
402 -> 403 ;
404 [label="gini = 0.0\nsamples = 1\nvalue = [0, 1]\nclass = y[1]"] ;
403 -> 404 ;
405 [label="gini = 0.1\nsamples = 19\nvalue = [18, 1]\nclass = y[0]"] ;
403 -> 405 ;
406 [label="gini = 0.48\nsamples = 5\nvalue = [2, 3]\nclass = y[1]"] ;
402 -> 406 ;
407 [label="constants <= 3.5\ngini = 0.482\nsamples = 94\nvalue = [38, 56]\nclass = y[1]"] ;
401 -> 407 ;
408 [label="nodes <= 46.0\ngini = 0.392\nsamples = 56\nvalue = [15, 41]\nclass = y[1]"] ;
407 -> 408 ;
409 [label="functions <= 9.5\ngini = 0.457\nsamples = 34\nvalue = [12, 22]\nclass = y[1]"] ;
408 -> 409 ;
410 [label="nodes_merged <= 20.5\ngini = 0.412\nsamples = 31\nvalue = [9, 22]\nclass = y[1]"] ;
409 -> 410 ;
411 [label="gini = 0.26\nsamples = 13\nvalue = [2, 11]\nclass = y[1]"] ;
410 -> 411 ;
412 [label="gini = 0.475\nsamples = 18\nvalue = [7, 11]\nclass = y[1]"] ;
410 -> 412 ;
413 [label="gini = 0.0\nsamples = 3\nvalue = [3, 0]\nclass = y[0]"] ;
409 -> 413 ;
414 [label="constants <= 2.5\ngini = 0.236\nsamples = 22\nvalue = [3, 19]\nclass = y[1]"] ;
408 -> 414 ;
415 [label="gini = 0.32\nsamples = 15\nvalue = [3, 12]\nclass = y[1]"] ;
414 -> 415 ;
416 [label="gini = 0.0\nsamples = 7\nvalue = [0, 7]\nclass = y[1]"] ;
414 -> 416 ;
417 [label="constants <= 5.5\ngini = 0.478\nsamples = 38\nvalue = [23, 15]\nclass = y[0]"] ;
407 -> 417 ;
418 [label="distinct_features <= 10.5\ngini = 0.355\nsamples = 26\nvalue = [20, 6]\nclass = y[0]"] ;
417 -> 418 ;
419 [label="gini = 0.188\nsamples = 19\nvalue = [17, 2]\nclass = y[0]"] ;
418 -> 419 ;
420 [label="gini = 0.49\nsamples = 7\nvalue = [3, 4]\nclass = y[1]"] ;
418 -> 420 ;
421 [label="gini = 0.375\nsamples = 12\nvalue = [3, 9]\nclass = y[1]"] ;
417 -> 421 ;
422 [label="constants <= 6.5\ngini = 0.486\nsamples = 485\nvalue = [283, 202]\nclass = y[0]"] ;
378 -> 422 ;
423 [label="nodes_merged <= 25.5\ngini = 0.476\nsamples = 390\nvalue = [238, 152]\nclass = y[0]"] ;
422 -> 423 ;
424 [label="functions <= 16.5\ngini = 0.446\nsamples = 253\nvalue = [168, 85]\nclass = y[0]"] ;
423 -> 424 ;
425 [label="nodes <= 72.0\ngini = 0.436\nsamples = 243\nvalue = [165, 78]\nclass = y[0]"] ;
424 -> 425 ;
426 [label="nodes_merged <= 24.5\ngini = 0.45\nsamples = 225\nvalue = [148, 77]\nclass = y[0]"] ;
425 -> 426 ;
427 [label="applications <= 8.5\ngini = 0.429\nsamples = 186\nvalue = [128, 58]\nclass = y[0]"] ;
426 -> 427 ;
428 [label="functions <= 5.5\ngini = 0.447\nsamples = 157\nvalue = [104, 53]\nclass = y[0]"] ;
427 -> 428 ;
429 [label="gini = 0.165\nsamples = 11\nvalue = [10, 1]\nclass = y[0]"] ;
428 -> 429 ;
430 [label="constants <= 5.5\ngini = 0.459\nsamples = 146\nvalue = [94, 52]\nclass = y[0]"] ;
428 -> 430 ;
431 [label="applications <= 4.5\ngini = 0.456\nsamples = 145\nvalue = [94, 51]\nclass = y[0]"] ;
430 -> 431 ;
432 [label="functions <= 11.0\ngini = 0.365\nsamples = 25\nvalue = [19, 6]\nclass = y[0]"] ;
431 -> 432 ;
433 [label="gini = 0.0\nsamples = 8\nvalue = [8, 0]\nclass = y[0]"] ;
432 -> 433 ;
434 [label="gini = 0.457\nsamples = 17\nvalue = [11, 6]\nclass = y[0]"] ;
432 -> 434 ;
435 [label="nodes_merged <= 23.5\ngini = 0.469\nsamples = 120\nvalue = [75, 45]\nclass = y[0]"] ;
431 -> 435 ;
436 [label="nodes <= 53.0\ngini = 0.487\nsamples = 74\nvalue = [43, 31]\nclass = y[0]"] ;
435 -> 436 ;
437 [label="nodes <= 46.0\ngini = 0.453\nsamples = 52\nvalue = [34, 18]\nclass = y[0]"] ;
436 -> 437 ;
438 [label="nodes_merged <= 22.5\ngini = 0.494\nsamples = 38\nvalue = [21, 17]\nclass = y[0]"] ;
437 -> 438 ;
439 [label="applications <= 5.5\ngini = 0.469\nsamples = 24\nvalue = [15, 9]\nclass = y[0]"] ;
438 -> 439 ;
440 [label="gini = 0.0\nsamples = 1\nvalue = [0, 1]\nclass = y[1]"] ;
439 -> 440 ;
441 [label="constants <= 2.0\ngini = 0.454\nsamples = 23\nvalue = [15, 8]\nclass = y[0]"] ;
439 -> 441 ;
442 [label="gini = 0.0\nsamples = 1\nvalue = [0, 1]\nclass = y[1]"] ;
441 -> 442 ;
443 [label="distinct_features <= 11.5\ngini = 0.434\nsamples = 22\nvalue = [15, 7]\nclass = y[0]"] ;
441 -> 443 ;
444 [label="applications <= 6.5\ngini = 0.455\nsamples = 20\nvalue = [13, 7]\nclass = y[0]"] ;
443 -> 444 ;
445 [label="gini = 0.48\nsamples = 15\nvalue = [9, 6]\nclass = y[0]"] ;
444 -> 445 ;
446 [label="gini = 0.32\nsamples = 5\nvalue = [4, 1]\nclass = y[0]"] ;
444 -> 446 ;
447 [label="gini = 0.0\nsamples = 2\nvalue = [2, 0]\nclass = y[0]"] ;
443 -> 447 ;
448 [label="gini = 0.49\nsamples = 14\nvalue = [6, 8]\nclass = y[1]"] ;
438 -> 448 ;
449 [label="gini = 0.133\nsamples = 14\nvalue = [13, 1]\nclass = y[0]"] ;
437 -> 449 ;
450 [label="functions <= 7.0\ngini = 0.483\nsamples = 22\nvalue = [9, 13]\nclass = y[1]"] ;
436 -> 450 ;
451 [label="gini = 0.469\nsamples = 8\nvalue = [5, 3]\nclass = y[0]"] ;
450 -> 451 ;
452 [label="gini = 0.408\nsamples = 14\nvalue = [4, 10]\nclass = y[1]"] ;
450 -> 452 ;
453 [label="constants <= 4.5\ngini = 0.423\nsamples = 46\nvalue = [32, 14]\nclass = y[0]"] ;
435 -> 453 ;
454 [label="nodes <= 50.0\ngini = 0.397\nsamples = 44\nvalue = [32, 12]\nclass = y[0]"] ;
453 -> 454 ;
455 [label="gini = 0.492\nsamples = 16\nvalue = [9, 7]\nclass = y[0]"] ;
454 -> 455 ;
456 [label="nodes <= 64.0\ngini = 0.293\nsamples = 28\nvalue = [23, 5]\nclass = y[0]"] ;
454 -> 456 ;
457 [label="constants <= 3.5\ngini = 0.252\nsamples = 27\nvalue = [23, 4]\nclass = y[0]"] ;
456 -> 457 ;
458 [label="gini = 0.0\nsamples = 13\nvalue = [13, 0]\nclass = y[0]"] ;
457 -> 458 ;
459 [label="gini = 0.408\nsamples = 14\nvalue = [10, 4]\nclass = y[0]"] ;
457 -> 459 ;
460 [label="gini = 0.0\nsamples = 1\nvalue = [0, 1]\nclass = y[1]"] ;
456 -> 460 ;
461 [label="gini = 0.0\nsamples = 2\nvalue = [0, 2]\nclass = y[1]"] ;
453 -> 461 ;
462 [label="gini = 0.0\nsamples = 1\nvalue = [0, 1]\nclass = y[1]"] ;
430 -> 462 ;
463 [label="constants <= 3.5\ngini = 0.285\nsamples = 29\nvalue = [24, 5]\nclass = y[0]"] ;
427 -> 463 ;
464 [label="gini = 0.0\nsamples = 1\nvalue = [0, 1]\nclass = y[1]"] ;
463 -> 464 ;
465 [label="distinct_features <= 11.5\ngini = 0.245\nsamples = 28\nvalue = [24, 4]\nclass = y[0]"] ;
463 -> 465 ;
466 [label="applications <= 9.5\ngini = 0.198\nsamples = 27\nvalue = [24, 3]\nclass = y[0]"] ;
465 -> 466 ;
467 [label="gini = 0.0\nsamples = 12\nvalue = [12, 0]\nclass = y[0]"] ;
466 -> 467 ;
468 [label="gini = 0.32\nsamples = 15\nvalue = [12, 3]\nclass = y[0]"] ;
466 -> 468 ;
469 [label="gini = 0.0\nsamples = 1\nvalue = [0, 1]\nclass = y[1]"] ;
465 -> 469 ;
470 [label="distinct_features <= 11.5\ngini = 0.5\nsamples = 39\nvalue = [20, 19]\nclass = y[0]"] ;
426 -> 470 ;
471 [label="functions <= 13.0\ngini = 0.42\nsamples = 20\nvalue = [14, 6]\nclass = y[0]"] ;
470 -> 471 ;
472 [label="gini = 0.497\nsamples = 13\nvalue = [7, 6]\nclass = y[0]"] ;
471 -> 472 ;
473 [label="gini = 0.0\nsamples = 7\nvalue = [7, 0]\nclass = y[0]"] ;
471 -> 473 ;
474 [label="gini = 0.432\nsamples = 19\nvalue = [6, 13]\nclass = y[1]"] ;
470 -> 474 ;
475 [label="gini = 0.105\nsamples = 18\nvalue = [17, 1]\nclass = y[0]"] ;
425 -> 475 ;
476 [label="gini = 0.42\nsamples = 10\nvalue = [3, 7]\nclass = y[1]"] ;
424 -> 476 ;
477 [label="nodes <= 49.0\ngini = 0.5\nsamples = 137\nvalue = [70, 67]\nclass = y[0]"] ;
423 -> 477 ;
478 [label="gini = 0.0\nsamples = 7\nvalue = [7, 0]\nclass = y[0]"] ;
477 -> 478 ;
479 [label="functions <= 17.5\ngini = 0.5\nsamples = 130\nvalue = [63, 67]\nclass = y[1]"] ;
477 -> 479 ;
480 [label="constants <= 3.5\ngini = 0.495\nsamples = 113\nvalue = [51, 62]\nclass = y[1]"] ;
479 -> 480 ;
481 [label="constants <= 2.0\ngini = 0.413\nsamples = 24\nvalue = [7, 17]\nclass = y[1]"] ;
480 -> 481 ;
482 [label="gini = 0.0\nsamples = 1\nvalue = [1, 0]\nclass = y[0]"] ;
481 -> 482 ;
483 [label="distinct_features <= 11.5\ngini = 0.386\nsamples = 23\nvalue = [6, 17]\nclass = y[1]"] ;
481 -> 483 ;
484 [label="gini = 0.444\nsamples = 3\nvalue = [2, 1]\nclass = y[0]"] ;
483 -> 484 ;
485 [label="nodes <= 56.0\ngini = 0.32\nsamples = 20\nvalue = [4, 16]\nclass = y[1]"] ;
483 -> 485 ;
486 [label="gini = 0.0\nsamples = 9\nvalue = [0, 9]\nclass = y[1]"] ;
485 -> 486 ;
487 [label="gini = 0.463\nsamples = 11\nvalue = [4, 7]\nclass = y[1]"] ;
485 -> 487 ;
488 [label="applications <= 12.5\ngini = 0.5\nsamples = 89\nvalue = [44, 45]\nclass = y[1]"] ;
480 -> 488 ;
489 [label="functions <= 9.5\ngini = 0.499\nsamples = 82\nvalue = [43, 39]\nclass = y[0]"] ;
488 -> 489 ;
490 [label="variables <= 4.5\ngini = 0.463\nsamples = 22\nvalue = [8, 14]\nclass = y[1]"] ;
489 -> 490 ;
491 [label="gini = 0.355\nsamples = 13\nvalue = [3, 10]\nclass = y[1]"] ;
490 -> 491 ;
492 [label="gini = 0.494\nsamples = 9\nvalue = [5, 4]\nclass = y[0]"] ;
490 -> 492 ;
493 [label="applications <= 10.5\ngini = 0.486\nsamples = 60\nvalue = [35, 25]\nclass = y[0]"] ;
489 -> 493 ;
494 [label="nodes_merged <= 29.5\ngini = 0.497\nsamples = 50\nvalue = [27, 23]\nclass = y[0]"] ;
493 -> 494 ;
495 [label="variables <= 6.5\ngini = 0.478\nsamples = 38\nvalue = [23, 15]\nclass = y[0]"] ;
494 -> 495 ;
496 [label="nodes <= 64.0\ngini = 0.461\nsamples = 36\nvalue = [23, 13]\nclass = y[0]"] ;
495 -> 496 ;
497 [label="nodes_merged <= 26.5\ngini = 0.43\nsamples = 32\nvalue = [22, 10]\nclass = y[0]"] ;
496 -> 497 ;
498 [label="gini = 0.48\nsamples = 5\nvalue = [2, 3]\nclass = y[1]"] ;
497 -> 498 ;
499 [label="nodes_merged <= 27.5\ngini = 0.384\nsamples = 27\nvalue = [20, 7]\nclass = y[0]"] ;
497 -> 499 ;
500 [label="gini = 0.0\nsamples = 5\nvalue = [5, 0]\nclass = y[0]"] ;
499 -> 500 ;
501 [label="nodes_merged <= 28.5\ngini = 0.434\nsamples = 22\nvalue = [15, 7]\nclass = y[0]"] ;
499 -> 501 ;
502 [label="gini = 0.5\nsamples = 6\nvalue = [3, 3]\nclass = y[0]"] ;
501 -> 502 ;
503 [label="gini = 0.375\nsamples = 16\nvalue = [12, 4]\nclass = y[0]"] ;
501 -> 503 ;
504 [label="gini = 0.375\nsamples = 4\nvalue = [1, 3]\nclass = y[1]"] ;
496 -> 504 ;
505 [label="gini = 0.0\nsamples = 2\nvalue = [0, 2]\nclass = y[1]"] ;
495 -> 505 ;
506 [label="gini = 0.444\nsamples = 12\nvalue = [4, 8]\nclass = y[1]"] ;
494 -> 506 ;
507 [label="gini = 0.32\nsamples = 10\nvalue = [8, 2]\nclass = y[0]"] ;
493 -> 507 ;
508 [label="gini = 0.245\nsamples = 7\nvalue = [1, 6]\nclass = y[1]"] ;
488 -> 508 ;
509 [label="gini = 0.415\nsamples = 17\nvalue = [12, 5]\nclass = y[0]"] ;
479 -> 509 ;
510 [label="variables <= 4.5\ngini = 0.499\nsamples = 95\nvalue = [45, 50]\nclass = y[1]"] ;
422 -> 510 ;
511 [label="functions <= 9.0\ngini = 0.258\nsamples = 46\nvalue = [7, 39]\nclass = y[1]"] ;
510 -> 511 ;
512 [label="gini = 0.0\nsamples = 4\nvalue = [4, 0]\nclass = y[0]"] ;
511 -> 512 ;
513 [label="nodes_merged <= 25.5\ngini = 0.133\nsamples = 42\nvalue = [3, 39]\nclass = y[1]"] ;
511 -> 513 ;
514 [label="nodes_merged <= 22.5\ngini = 0.211\nsamples = 25\nvalue = [3, 22]\nclass = y[1]"] ;
513 -> 514 ;
515 [label="gini = 0.375\nsamples = 4\nvalue = [1, 3]\nclass = y[1]"] ;
514 -> 515 ;
516 [label="variables <= 3.5\ngini = 0.172\nsamples = 21\nvalue = [2, 19]\nclass = y[1]"] ;
514 -> 516 ;
517 [label="gini = 0.219\nsamples = 8\nvalue = [1, 7]\nclass = y[1]"] ;
516 -> 517 ;
518 [label="gini = 0.142\nsamples = 13\nvalue = [1, 12]\nclass = y[1]"] ;
516 -> 518 ;
519 [label="gini = 0.0\nsamples = 17\nvalue = [0, 17]\nclass = y[1]"] ;
513 -> 519 ;
520 [label="nodes_merged <= 31.5\ngini = 0.348\nsamples = 49\nvalue = [38, 11]\nclass = y[0]"] ;
510 -> 520 ;
521 [label="variables <= 5.5\ngini = 0.245\nsamples = 42\nvalue = [36, 6]\nclass = y[0]"] ;
520 -> 521 ;
522 [label="gini = 0.5\nsamples = 4\nvalue = [2, 2]\nclass = y[0]"] ;
521 -> 522 ;
523 [label="functions <= 12.5\ngini = 0.188\nsamples = 38\nvalue = [34, 4]\nclass = y[0]"] ;
521 -> 523 ;
524 [label="gini = 0.0\nsamples = 16\nvalue = [16, 0]\nclass = y[0]"] ;
523 -> 524 ;
525 [label="nodes_merged <= 25.5\ngini = 0.298\nsamples = 22\nvalue = [18, 4]\nclass = y[0]"] ;
523 -> 525 ;
526 [label="gini = 0.0\nsamples = 1\nvalue = [0, 1]\nclass = y[1]"] ;
525 -> 526 ;
527 [label="nodes_merged <= 26.5\ngini = 0.245\nsamples = 21\nvalue = [18, 3]\nclass = y[0]"] ;
525 -> 527 ;
528 [label="gini = 0.444\nsamples = 3\nvalue = [2, 1]\nclass = y[0]"] ;
527 -> 528 ;
529 [label="gini = 0.198\nsamples = 18\nvalue = [16, 2]\nclass = y[0]"] ;
527 -> 529 ;
530 [label="gini = 0.408\nsamples = 7\nvalue = [2, 5]\nclass = y[1]"] ;
520 -> 530 ;
531 [label="functions <= 33.0\ngini = 0.408\nsamples = 91\nvalue = [26, 65]\nclass = y[1]"] ;
377 -> 531 ;
532 [label="constants <= 3.5\ngini = 0.32\nsamples = 75\nvalue = [15, 60]\nclass = y[1]"] ;
531 -> 532 ;
533 [label="gini = 0.0\nsamples = 2\nvalue = [2, 0]\nclass = y[0]"] ;
532 -> 533 ;
534 [label="distinct_features <= 11.5\ngini = 0.293\nsamples = 73\nvalue = [13, 60]\nclass = y[1]"] ;
532 -> 534 ;
535 [label="variables <= 6.5\ngini = 0.074\nsamples = 26\nvalue = [1, 25]\nclass = y[1]"] ;
534 -> 535 ;
536 [label="gini = 0.0\nsamples = 23\nvalue = [0, 23]\nclass = y[1]"] ;
535 -> 536 ;
537 [label="gini = 0.444\nsamples = 3\nvalue = [1, 2]\nclass = y[1]"] ;
535 -> 537 ;
538 [label="nodes_merged <= 26.5\ngini = 0.38\nsamples = 47\nvalue = [12, 35]\nclass = y[1]"] ;
534 -> 538 ;
539 [label="gini = 0.0\nsamples = 2\nvalue = [2, 0]\nclass = y[0]"] ;
538 -> 539 ;
540 [label="variables <= 5.5\ngini = 0.346\nsamples = 45\nvalue = [10, 35]\nclass = y[1]"] ;
538 -> 540 ;
541 [label="applications <= 10.5\ngini = 0.204\nsamples = 26\nvalue = [3, 23]\nclass = y[1]"] ;
540 -> 541 ;
542 [label="constants <= 4.5\ngini = 0.147\nsamples = 25\nvalue = [2, 23]\nclass = y[1]"] ;
541 -> 542 ;
543 [label="gini = 0.375\nsamples = 8\nvalue = [2, 6]\nclass = y[1]"] ;
542 -> 543 ;
544 [label="gini = 0.0\nsamples = 17\nvalue = [0, 17]\nclass = y[1]"] ;
542 -> 544 ;
545 [label="gini = 0.0\nsamples = 1\nvalue = [1, 0]\nclass = y[0]"] ;
541 -> 545 ;
546 [label="gini = 0.465\nsamples = 19\nvalue = [7, 12]\nclass = y[1]"] ;
540 -> 546 ;
547 [label="gini = 0.43\nsamples = 16\nvalue = [11, 5]\nclass = y[0]"] ;
531 -> 547 ;
548 [label="constants <= 3.5\ngini = 0.479\nsamples = 1963\nvalue = [1182, 781]\nclass = y[0]"] ;
376 -> 548 ;
549 [label="nodes_merged <= 34.5\ngini = 0.384\nsamples = 305\nvalue = [226, 79]\nclass = y[0]"] ;
548 -> 549 ;
550 [label="nodes_merged <= 27.5\ngini = 0.406\nsamples = 272\nvalue = [195, 77]\nclass = y[0]"] ;
549 -> 550 ;
551 [label="nodes_merged <= 26.5\ngini = 0.33\nsamples = 149\nvalue = [118, 31]\nclass = y[0]"] ;
550 -> 551 ;
552 [label="variables <= 4.5\ngini = 0.395\nsamples = 107\nvalue = [78, 29]\nclass = y[0]"] ;
551 -> 552 ;
553 [label="distinct_features <= 14.5\ngini = 0.368\nsamples = 103\nvalue = [78, 25]\nclass = y[0]"] ;
552 -> 553 ;
554 [label="nodes_merged <= 25.5\ngini = 0.36\nsamples = 102\nvalue = [78, 24]\nclass = y[0]"] ;
553 -> 554 ;
555 [label="nodes <= 56.0\ngini = 0.323\nsamples = 84\nvalue = [67, 17]\nclass = y[0]"] ;
554 -> 555 ;
556 [label="nodes <= 44.0\ngini = 0.4\nsamples = 58\nvalue = [42, 16]\nclass = y[0]"] ;
555 -> 556 ;
557 [label="applications <= 4.5\ngini = 0.239\nsamples = 36\nvalue = [31, 5]\nclass = y[0]"] ;
556 -> 557 ;
558 [label="variables <= 3.5\ngini = 0.17\nsamples = 32\nvalue = [29, 3]\nclass = y[0]"] ;
557 -> 558 ;
559 [label="nodes <= 34.0\ngini = 0.087\nsamples = 22\nvalue = [21, 1]\nclass = y[0]"] ;
558 -> 559 ;
560 [label="gini = 0.375\nsamples = 4\nvalue = [3, 1]\nclass = y[0]"] ;
559 -> 560 ;
561 [label="gini = 0.0\nsamples = 18\nvalue = [18, 0]\nclass = y[0]"] ;
559 -> 561 ;
562 [label="gini = 0.32\nsamples = 10\nvalue = [8, 2]\nclass = y[0]"] ;
558 -> 562 ;
563 [label="gini = 0.5\nsamples = 4\nvalue = [2, 2]\nclass = y[0]"] ;
557 -> 563 ;
564 [label="functions <= 9.0\ngini = 0.5\nsamples = 22\nvalue = [11, 11]\nclass = y[0]"] ;
556 -> 564 ;
565 [label="gini = 0.475\nsamples = 18\nvalue = [11, 7]\nclass = y[0]"] ;
564 -> 565 ;
566 [label="gini = 0.0\nsamples = 4\nvalue = [0, 4]\nclass = y[1]"] ;
564 -> 566 ;
567 [label="nodes_merged <= 22.5\ngini = 0.074\nsamples = 26\nvalue = [25, 1]\nclass = y[0]"] ;
555 -> 567 ;
568 [label="gini = 0.0\nsamples = 1\nvalue = [0, 1]\nclass = y[1]"] ;
567 -> 568 ;
569 [label="gini = 0.0\nsamples = 25\nvalue = [25, 0]\nclass = y[0]"] ;
567 -> 569 ;
570 [label="gini = 0.475\nsamples = 18\nvalue = [11, 7]\nclass = y[0]"] ;
554 -> 570 ;
571 [label="gini = 0.0\nsamples = 1\nvalue = [0, 1]\nclass = y[1]"] ;
553 -> 571 ;
572 [label="gini = 0.0\nsamples = 4\nvalue = [0, 4]\nclass = y[1]"] ;
552 -> 572 ;
573 [label="nodes <= 62.0\ngini = 0.091\nsamples = 42\nvalue = [40, 2]\nclass = y[0]"] ;
551 -> 573 ;
574 [label="functions <= 10.0\ngini = 0.172\nsamples = 21\nvalue = [19, 2]\nclass = y[0]"] ;
573 -> 574 ;
575 [label="gini = 0.0\nsamples = 14\nvalue = [14, 0]\nclass = y[0]"] ;
574 -> 575 ;
576 [label="gini = 0.408\nsamples = 7\nvalue = [5, 2]\nclass = y[0]"] ;
574 -> 576 ;
577 [label="gini = 0.0\nsamples = 21\nvalue = [21, 0]\nclass = y[0]"] ;
573 -> 577 ;
578 [label="distinct_features <= 16.5\ngini = 0.468\nsamples = 123\nvalue = [77, 46]\nclass = y[0]"] ;
550 -> 578 ;
579 [label="applications <= 8.5\ngini = 0.477\nsamples = 117\nvalue = [71, 46]\nclass = y[0]"] ;
578 -> 579 ;
580 [label="nodes <= 40.0\ngini = 0.489\nsamples = 101\nvalue = [58, 43]\nclass = y[0]"] ;
579 -> 580 ;
581 [label="gini = 0.0\nsamples = 2\nvalue = [0, 2]\nclass = y[1]"] ;
580 -> 581 ;
582 [label="functions <= 6.5\ngini = 0.485\nsamples = 99\nvalue = [58, 41]\nclass = y[0]"] ;
580 -> 582 ;
583 [label="gini = 0.219\nsamples = 8\nvalue = [7, 1]\nclass = y[0]"] ;
582 -> 583 ;
584 [label="nodes <= 60.0\ngini = 0.493\nsamples = 91\nvalue = [51, 40]\nclass = y[0]"] ;
582 -> 584 ;
585 [label="nodes_merged <= 32.5\ngini = 0.487\nsamples = 31\nvalue = [13, 18]\nclass = y[1]"] ;
584 -> 585 ;
586 [label="functions <= 11.5\ngini = 0.444\nsamples = 27\nvalue = [9, 18]\nclass = y[1]"] ;
585 -> 586 ;
587 [label="gini = 0.5\nsamples = 16\nvalue = [8, 8]\nclass = y[0]"] ;
586 -> 587 ;
588 [label="gini = 0.165\nsamples = 11\nvalue = [1, 10]\nclass = y[1]"] ;
586 -> 588 ;
589 [label="gini = 0.0\nsamples = 4\nvalue = [4, 0]\nclass = y[0]"] ;
585 -> 589 ;
590 [label="nodes_merged <= 32.5\ngini = 0.464\nsamples = 60\nvalue = [38, 22]\nclass = y[0]"] ;
584 -> 590 ;
591 [label="functions <= 17.5\ngini = 0.416\nsamples = 44\nvalue = [31, 13]\nclass = y[0]"] ;
590 -> 591 ;
592 [label="variables <= 3.5\ngini = 0.368\nsamples = 37\nvalue = [28, 9]\nclass = y[0]"] ;
591 -> 592 ;
593 [label="gini = 0.484\nsamples = 17\nvalue = [10, 7]\nclass = y[0]"] ;
592 -> 593 ;
594 [label="nodes <= 64.0\ngini = 0.18\nsamples = 20\nvalue = [18, 2]\nclass = y[0]"] ;
592 -> 594 ;
595 [label="gini = 0.444\nsamples = 6\nvalue = [4, 2]\nclass = y[0]"] ;
594 -> 595 ;
596 [label="gini = 0.0\nsamples = 14\nvalue = [14, 0]\nclass = y[0]"] ;
594 -> 596 ;
597 [label="gini = 0.49\nsamples = 7\nvalue = [3, 4]\nclass = y[1]"] ;
591 -> 597 ;
598 [label="gini = 0.492\nsamples = 16\nvalue = [7, 9]\nclass = y[1]"] ;
590 -> 598 ;
599 [label="gini = 0.305\nsamples = 16\nvalue = [13, 3]\nclass = y[0]"] ;
579 -> 599 ;
600 [label="gini = 0.0\nsamples = 6\nvalue = [6, 0]\nclass = y[0]"] ;
578 -> 600 ;
601 [label="nodes <= 98.0\ngini = 0.114\nsamples = 33\nvalue = [31, 2]\nclass = y[0]"] ;
549 -> 601 ;
602 [label="variables <= 7.5\ngini = 0.067\nsamples = 29\nvalue = [28, 1]\nclass = y[0]"] ;
601 -> 602 ;
603 [label="gini = 0.0\nsamples = 20\nvalue = [20, 0]\nclass = y[0]"] ;
602 -> 603 ;
604 [label="gini = 0.198\nsamples = 9\nvalue = [8, 1]\nclass = y[0]"] ;
602 -> 604 ;
605 [label="gini = 0.375\nsamples = 4\nvalue = [3, 1]\nclass = y[0]"] ;
601 -> 605 ;
606 [label="nodes_merged <= 36.5\ngini = 0.488\nsamples = 1658\nvalue = [956, 702]\nclass = y[0]"] ;
548 -> 606 ;
607 [label="constants <= 7.5\ngini = 0.498\nsamples = 914\nvalue = [488, 426]\nclass = y[0]"] ;
606 -> 607 ;
608 [label="functions <= 22.5\ngini = 0.495\nsamples = 854\nvalue = [470, 384]\nclass = y[0]"] ;
607 -> 608 ;
609 [label="nodes <= 60.0\ngini = 0.498\nsamples = 732\nvalue = [387, 345]\nclass = y[0]"] ;
608 -> 609 ;
610 [label="nodes_merged <= 31.5\ngini = 0.486\nsamples = 115\nvalue = [48, 67]\nclass = y[1]"] ;
609 -> 610 ;
611 [label="nodes_merged <= 29.5\ngini = 0.444\nsamples = 84\nvalue = [28, 56]\nclass = y[1]"] ;
610 -> 611 ;
612 [label="variables <= 4.5\ngini = 0.5\nsamples = 38\nvalue = [19, 19]\nclass = y[0]"] ;
611 -> 612 ;
613 [label="constants <= 5.5\ngini = 0.496\nsamples = 35\nvalue = [19, 16]\nclass = y[0]"] ;
612 -> 613 ;
614 [label="functions <= 12.5\ngini = 0.487\nsamples = 31\nvalue = [18, 13]\nclass = y[0]"] ;
613 -> 614 ;
615 [label="distinct_features <= 14.5\ngini = 0.48\nsamples = 30\nvalue = [18, 12]\nclass = y[0]"] ;
614 -> 615 ;
616 [label="functions <= 11.5\ngini = 0.471\nsamples = 29\nvalue = [18, 11]\nclass = y[0]"] ;
615 -> 616 ;
617 [label="functions <= 8.5\ngini = 0.483\nsamples = 27\nvalue = [16, 11]\nclass = y[0]"] ;
616 -> 617 ;
618 [label="applications <= 6.5\ngini = 0.454\nsamples = 23\nvalue = [15, 8]\nclass = y[0]"] ;
617 -> 618 ;
619 [label="gini = 0.0\nsamples = 2\nvalue = [2, 0]\nclass = y[0]"] ;
618 -> 619 ;
620 [label="functions <= 6.5\ngini = 0.472\nsamples = 21\nvalue = [13, 8]\nclass = y[0]"] ;
618 -> 620 ;
621 [label="gini = 0.0\nsamples = 1\nvalue = [0, 1]\nclass = y[1]"] ;
620 -> 621 ;
622 [label="nodes_merged <= 28.5\ngini = 0.455\nsamples = 20\nvalue = [13, 7]\nclass = y[0]"] ;
620 -> 622 ;
623 [label="gini = 0.497\nsamples = 13\nvalue = [7, 6]\nclass = y[0]"] ;
622 -> 623 ;
624 [label="gini = 0.245\nsamples = 7\nvalue = [6, 1]\nclass = y[0]"] ;
622 -> 624 ;
625 [label="gini = 0.375\nsamples = 4\nvalue = [1, 3]\nclass = y[1]"] ;
617 -> 625 ;
626 [label="gini = 0.0\nsamples = 2\nvalue = [2, 0]\nclass = y[0]"] ;
616 -> 626 ;
627 [label="gini = 0.0\nsamples = 1\nvalue = [0, 1]\nclass = y[1]"] ;
615 -> 627 ;
628 [label="gini = 0.0\nsamples = 1\nvalue = [0, 1]\nclass = y[1]"] ;
614 -> 628 ;
629 [label="gini = 0.375\nsamples = 4\nvalue = [1, 3]\nclass = y[1]"] ;
613 -> 629 ;
630 [label="gini = 0.0\nsamples = 3\nvalue = [0, 3]\nclass = y[1]"] ;
612 -> 630 ;
631 [label="distinct_features <= 13.5\ngini = 0.315\nsamples = 46\nvalue = [9, 37]\nclass = y[1]"] ;
611 -> 631 ;
632 [label="gini = 0.111\nsamples = 17\nvalue = [1, 16]\nclass = y[1]"] ;
631 -> 632 ;
633 [label="variables <= 4.5\ngini = 0.4\nsamples = 29\nvalue = [8, 21]\nclass = y[1]"] ;
631 -> 633 ;
634 [label="nodes <= 56.0\ngini = 0.346\nsamples = 27\nvalue = [6, 21]\nclass = y[1]"] ;
633 -> 634 ;
635 [label="gini = 0.43\nsamples = 16\nvalue = [5, 11]\nclass = y[1]"] ;
634 -> 635 ;
636 [label="gini = 0.165\nsamples = 11\nvalue = [1, 10]\nclass = y[1]"] ;
634 -> 636 ;
637 [label="gini = 0.0\nsamples = 2\nvalue = [2, 0]\nclass = y[0]"] ;
633 -> 637 ;
638 [label="distinct_features <= 15.5\ngini = 0.458\nsamples = 31\nvalue = [20, 11]\nclass = y[0]"] ;
610 -> 638 ;
639 [label="variables <= 3.5\ngini = 0.351\nsamples = 22\nvalue = [17, 5]\nclass = y[0]"] ;
638 -> 639 ;
640 [label="gini = 0.375\nsamples = 4\nvalue = [1, 3]\nclass = y[1]"] ;
639 -> 640 ;
641 [label="gini = 0.198\nsamples = 18\nvalue = [16, 2]\nclass = y[0]"] ;
639 -> 641 ;
642 [label="gini = 0.444\nsamples = 9\nvalue = [3, 6]\nclass = y[1]"] ;
638 -> 642 ;
643 [label="constants <= 4.5\ngini = 0.495\nsamples = 617\nvalue = [339, 278]\nclass = y[0]"] ;
609 -> 643 ;
644 [label="nodes_merged <= 26.5\ngini = 0.462\nsamples = 155\nvalue = [99, 56]\nclass = y[0]"] ;
643 -> 644 ;
645 [label="functions <= 6.5\ngini = 0.491\nsamples = 23\nvalue = [10, 13]\nclass = y[1]"] ;
644 -> 645 ;
646 [label="gini = 0.0\nsamples = 1\nvalue = [1, 0]\nclass = y[0]"] ;
645 -> 646 ;
647 [label="functions <= 17.5\ngini = 0.483\nsamples = 22\nvalue = [9, 13]\nclass = y[1]"] ;
645 -> 647 ;
648 [label="gini = 0.457\nsamples = 17\nvalue = [6, 11]\nclass = y[1]"] ;
647 -> 648 ;
649 [label="gini = 0.48\nsamples = 5\nvalue = [3, 2]\nclass = y[0]"] ;
647 -> 649 ;
650 [label="functions <= 11.5\ngini = 0.439\nsamples = 132\nvalue = [89, 43]\nclass = y[0]"] ;
644 -> 650 ;
651 [label="gini = 0.492\nsamples = 16\nvalue = [7, 9]\nclass = y[1]"] ;
650 -> 651 ;
652 [label="nodes <= 74.0\ngini = 0.414\nsamples = 116\nvalue = [82, 34]\nclass = y[0]"] ;
650 -> 652 ;
653 [label="nodes_merged <= 31.5\ngini = 0.278\nsamples = 30\nvalue = [25, 5]\nclass = y[0]"] ;
652 -> 653 ;
654 [label="functions <= 16.5\ngini = 0.375\nsamples = 20\nvalue = [15, 5]\nclass = y[0]"] ;
653 -> 654 ;
655 [label="gini = 0.291\nsamples = 17\nvalue = [14, 3]\nclass = y[0]"] ;
654 -> 655 ;
656 [label="gini = 0.444\nsamples = 3\nvalue = [1, 2]\nclass = y[1]"] ;
654 -> 656 ;
657 [label="gini = 0.0\nsamples = 10\nvalue = [10, 0]\nclass = y[0]"] ;
653 -> 657 ;
658 [label="applications <= 12.0\ngini = 0.447\nsamples = 86\nvalue = [57, 29]\nclass = y[0]"] ;
652 -> 658 ;
659 [label="nodes_merged <= 33.5\ngini = 0.442\nsamples = 85\nvalue = [57, 28]\nclass = y[0]"] ;
658 -> 659 ;
660 [label="distinct_features <= 13.5\ngini = 0.469\nsamples = 64\nvalue = [40, 24]\nclass = y[0]"] ;
659 -> 660 ;
661 [label="gini = 0.219\nsamples = 8\nvalue = [7, 1]\nclass = y[0]"] ;
660 -> 661 ;
662 [label="nodes_merged <= 30.5\ngini = 0.484\nsamples = 56\nvalue = [33, 23]\nclass = y[0]"] ;
660 -> 662 ;
663 [label="functions <= 12.5\ngini = 0.491\nsamples = 23\nvalue = [10, 13]\nclass = y[1]"] ;
662 -> 663 ;
664 [label="gini = 0.0\nsamples = 2\nvalue = [0, 2]\nclass = y[1]"] ;
663 -> 664 ;
665 [label="nodes <= 105.0\ngini = 0.499\nsamples = 21\nvalue = [10, 11]\nclass = y[1]"] ;
663 -> 665 ;
666 [label="gini = 0.499\nsamples = 19\nvalue = [10, 9]\nclass = y[0]"] ;
665 -> 666 ;
667 [label="gini = 0.0\nsamples = 2\nvalue = [0, 2]\nclass = y[1]"] ;
665 -> 667 ;
668 [label="nodes_merged <= 32.5\ngini = 0.422\nsamples = 33\nvalue = [23, 10]\nclass = y[0]"] ;
662 -> 668 ;
669 [label="functions <= 20.5\ngini = 0.298\nsamples = 22\nvalue = [18, 4]\nclass = y[0]"] ;
668 -> 669 ;
670 [label="nodes <= 94.0\ngini = 0.245\nsamples = 21\nvalue = [18, 3]\nclass = y[0]"] ;
669 -> 670 ;
671 [label="gini = 0.305\nsamples = 16\nvalue = [13, 3]\nclass = y[0]"] ;
670 -> 671 ;
672 [label="gini = 0.0\nsamples = 5\nvalue = [5, 0]\nclass = y[0]"] ;
670 -> 672 ;
673 [label="gini = 0.0\nsamples = 1\nvalue = [0, 1]\nclass = y[1]"] ;
669 -> 673 ;
674 [label="gini = 0.496\nsamples = 11\nvalue = [5, 6]\nclass = y[1]"] ;
668 -> 674 ;
675 [label="functions <= 13.5\ngini = 0.308\nsamples = 21\nvalue = [17, 4]\nclass = y[0]"] ;
659 -> 675 ;
676 [label="gini = 0.0\nsamples = 1\nvalue = [0, 1]\nclass = y[1]"] ;
675 -> 676 ;
677 [label="nodes <= 113.0\ngini = 0.255\nsamples = 20\nvalue = [17, 3]\nclass = y[0]"] ;
675 -> 677 ;
678 [label="gini = 0.188\nsamples = 19\nvalue = [17, 2]\nclass = y[0]"] ;
677 -> 678 ;
679 [label="gini = 0.0\nsamples = 1\nvalue = [0, 1]\nclass = y[1]"] ;
677 -> 679 ;
680 [label="gini = 0.0\nsamples = 1\nvalue = [0, 1]\nclass = y[1]"] ;
658 -> 680 ;
681 [label="functions <= 11.5\ngini = 0.499\nsamples = 462\nvalue = [240, 222]\nclass = y[0]"] ;
643 -> 681 ;
682 [label="nodes <= 121.0\ngini = 0.468\nsamples = 195\nvalue = [122, 73]\nclass = y[0]"] ;
681 -> 682 ;
683 [label="nodes <= 92.0\ngini = 0.447\nsamples = 172\nvalue = [114, 58]\nclass = y[0]"] ;
682 -> 683 ;
684 [label="applications <= 8.5\ngini = 0.484\nsamples = 127\nvalue = [75, 52]\nclass = y[0]"] ;
683 -> 684 ;
685 [label="nodes <= 82.0\ngini = 0.367\nsamples = 33\nvalue = [25, 8]\nclass = y[0]"] ;
684 -> 685 ;
686 [label="nodes_merged <= 26.5\ngini = 0.293\nsamples = 28\nvalue = [23, 5]\nclass = y[0]"] ;
685 -> 686 ;
687 [label="gini = 0.0\nsamples = 1\nvalue = [0, 1]\nclass = y[1]"] ;
686 -> 687 ;
688 [label="nodes <= 64.0\ngini = 0.252\nsamples = 27\nvalue = [23, 4]\nclass = y[0]"] ;
686 -> 688 ;
689 [label="gini = 0.42\nsamples = 10\nvalue = [7, 3]\nclass = y[0]"] ;
688 -> 689 ;
690 [label="gini = 0.111\nsamples = 17\nvalue = [16, 1]\nclass = y[0]"] ;
688 -> 690 ;
691 [label="gini = 0.48\nsamples = 5\nvalue = [2, 3]\nclass = y[1]"] ;
685 -> 691 ;
692 [label="distinct_features <= 16.5\ngini = 0.498\nsamples = 94\nvalue = [50, 44]\nclass = y[0]"] ;
684 -> 692 ;
693 [label="nodes_merged <= 35.5\ngini = 0.494\nsamples = 90\nvalue = [50, 40]\nclass = y[0]"] ;
692 -> 693 ;
694 [label="distinct_features <= 14.5\ngini = 0.5\nsamples = 71\nvalue = [35, 36]\nclass = y[1]"] ;
693 -> 694 ;
695 [label="nodes_merged <= 32.5\ngini = 0.495\nsamples = 62\nvalue = [34, 28]\nclass = y[0]"] ;
694 -> 695 ;
696 [label="applications <= 10.5\ngini = 0.498\nsamples = 43\nvalue = [20, 23]\nclass = y[1]"] ;
695 -> 696 ;
697 [label="distinct_features <= 13.5\ngini = 0.5\nsamples = 36\nvalue = [18, 18]\nclass = y[0]"] ;
696 -> 697 ;
698 [label="functions <= 9.5\ngini = 0.472\nsamples = 21\nvalue = [13, 8]\nclass = y[0]"] ;
697 -> 698 ;
699 [label="gini = 0.0\nsamples = 1\nvalue = [0, 1]\nclass = y[1]"] ;
698 -> 699 ;
700 [label="nodes_merged <= 30.5\ngini = 0.455\nsamples = 20\nvalue = [13, 7]\nclass = y[0]"] ;
698 -> 700 ;
701 [label="gini = 0.486\nsamples = 12\nvalue = [7, 5]\nclass = y[0]"] ;
700 -> 701 ;
702 [label="gini = 0.375\nsamples = 8\nvalue = [6, 2]\nclass = y[0]"] ;
700 -> 702 ;
703 [label="gini = 0.444\nsamples = 15\nvalue = [5, 10]\nclass = y[1]"] ;
697 -> 703 ;
704 [label="gini = 0.408\nsamples = 7\nvalue = [2, 5]\nclass = y[1]"] ;
696 -> 704 ;
705 [label="gini = 0.388\nsamples = 19\nvalue = [14, 5]\nclass = y[0]"] ;
695 -> 705 ;
706 [label="gini = 0.198\nsamples = 9\nvalue = [1, 8]\nclass = y[1]"] ;
694 -> 706 ;
707 [label="gini = 0.332\nsamples = 19\nvalue = [15, 4]\nclass = y[0]"] ;
693 -> 707 ;
708 [label="gini = 0.0\nsamples = 4\nvalue = [0, 4]\nclass = y[1]"] ;
692 -> 708 ;
709 [label="applications <= 9.5\ngini = 0.231\nsamples = 45\nvalue = [39, 6]\nclass = y[0]"] ;
683 -> 709 ;
710 [label="gini = 0.48\nsamples = 15\nvalue = [9, 6]\nclass = y[0]"] ;
709 -> 710 ;
711 [label="gini = 0.0\nsamples = 30\nvalue = [30, 0]\nclass = y[0]"] ;
709 -> 711 ;
712 [label="variables <= 4.5\ngini = 0.454\nsamples = 23\nvalue = [8, 15]\nclass = y[1]"] ;
682 -> 712 ;
713 [label="gini = 0.165\nsamples = 11\nvalue = [1, 10]\nclass = y[1]"] ;
712 -> 713 ;
714 [label="gini = 0.486\nsamples = 12\nvalue = [7, 5]\nclass = y[0]"] ;
712 -> 714 ;
715 [label="nodes <= 104.0\ngini = 0.493\nsamples = 267\nvalue = [118, 149]\nclass = y[1]"] ;
681 -> 715 ;
716 [label="applications <= 15.5\ngini = 0.471\nsamples = 203\nvalue = [77, 126]\nclass = y[1]"] ;
715 -> 716 ;
717 [label="constants <= 5.5\ngini = 0.479\nsamples = 194\nvalue = [77, 117]\nclass = y[1]"] ;
716 -> 717 ;
718 [label="distinct_features <= 15.5\ngini = 0.417\nsamples = 91\nvalue = [27, 64]\nclass = y[1]"] ;
717 -> 718 ;
719 [label="nodes <= 78.0\ngini = 0.39\nsamples = 79\nvalue = [21, 58]\nclass = y[1]"] ;
718 -> 719 ;
720 [label="nodes <= 72.0\ngini = 0.486\nsamples = 24\nvalue = [10, 14]\nclass = y[1]"] ;
719 -> 720 ;
721 [label="gini = 0.198\nsamples = 9\nvalue = [1, 8]\nclass = y[1]"] ;
720 -> 721 ;
722 [label="gini = 0.48\nsamples = 15\nvalue = [9, 6]\nclass = y[0]"] ;
720 -> 722 ;
723 [label="applications <= 6.5\ngini = 0.32\nsamples = 55\nvalue = [11, 44]\nclass = y[1]"] ;
719 -> 723 ;
724 [label="gini = 0.0\nsamples = 1\nvalue = [1, 0]\nclass = y[0]"] ;
723 -> 724 ;
725 [label="nodes <= 97.0\ngini = 0.302\nsamples = 54\nvalue = [10, 44]\nclass = y[1]"] ;
723 -> 725 ;
726 [label="applications <= 11.5\ngini = 0.254\nsamples = 47\nvalue = [7, 40]\nclass = y[1]"] ;
725 -> 726 ;
727 [label="applications <= 8.5\ngini = 0.231\nsamples = 45\nvalue = [6, 39]\nclass = y[1]"] ;
726 -> 727 ;
728 [label="functions <= 14.5\ngini = 0.302\nsamples = 27\nvalue = [5, 22]\nclass = y[1]"] ;
727 -> 728 ;
729 [label="gini = 0.0\nsamples = 6\nvalue = [0, 6]\nclass = y[1]"] ;
728 -> 729 ;
730 [label="variables <= 3.5\ngini = 0.363\nsamples = 21\nvalue = [5, 16]\nclass = y[1]"] ;
728 -> 730 ;
731 [label="gini = 0.18\nsamples = 10\nvalue = [1, 9]\nclass = y[1]"] ;
730 -> 731 ;
732 [label="gini = 0.463\nsamples = 11\nvalue = [4, 7]\nclass = y[1]"] ;
730 -> 732 ;
733 [label="gini = 0.105\nsamples = 18\nvalue = [1, 17]\nclass = y[1]"] ;
727 -> 733 ;
734 [label="gini = 0.5\nsamples = 2\nvalue = [1, 1]\nclass = y[0]"] ;
726 -> 734 ;
735 [label="gini = 0.49\nsamples = 7\nvalue = [3, 4]\nclass = y[1]"] ;
725 -> 735 ;
736 [label="gini = 0.5\nsamples = 12\nvalue = [6, 6]\nclass = y[0]"] ;
718 -> 736 ;
737 [label="nodes <= 82.0\ngini = 0.5\nsamples = 103\nvalue = [50, 53]\nclass = y[1]"] ;
717 -> 737 ;
738 [label="applications <= 11.0\ngini = 0.444\nsamples = 42\nvalue = [14, 28]\nclass = y[1]"] ;
737 -> 738 ;
739 [label="gini = 0.231\nsamples = 15\nvalue = [2, 13]\nclass = y[1]"] ;
738 -> 739 ;
740 [label="nodes_merged <= 31.5\ngini = 0.494\nsamples = 27\nvalue = [12, 15]\nclass = y[1]"] ;
738 -> 740 ;
741 [label="gini = 0.0\nsamples = 3\nvalue = [0, 3]\nclass = y[1]"] ;
740 -> 741 ;
742 [label="distinct_features <= 13.5\ngini = 0.5\nsamples = 24\nvalue = [12, 12]\nclass = y[0]"] ;
740 -> 742 ;
743 [label="gini = 0.278\nsamples = 6\nvalue = [5, 1]\nclass = y[0]"] ;
742 -> 743 ;
744 [label="gini = 0.475\nsamples = 18\nvalue = [7, 11]\nclass = y[1]"] ;
742 -> 744 ;
745 [label="applications <= 9.5\ngini = 0.484\nsamples = 61\nvalue = [36, 25]\nclass = y[0]"] ;
737 -> 745 ;
746 [label="gini = 0.133\nsamples = 14\nvalue = [13, 1]\nclass = y[0]"] ;
745 -> 746 ;
747 [label="nodes <= 90.0\ngini = 0.5\nsamples = 47\nvalue = [23, 24]\nclass = y[1]"] ;
745 -> 747 ;
748 [label="distinct_features <= 13.5\ngini = 0.459\nsamples = 28\nvalue = [18, 10]\nclass = y[0]"] ;
747 -> 748 ;
749 [label="gini = 0.49\nsamples = 14\nvalue = [6, 8]\nclass = y[1]"] ;
748 -> 749 ;
750 [label="gini = 0.245\nsamples = 14\nvalue = [12, 2]\nclass = y[0]"] ;
748 -> 750 ;
751 [label="gini = 0.388\nsamples = 19\nvalue = [5, 14]\nclass = y[1]"] ;
747 -> 751 ;
752 [label="gini = 0.0\nsamples = 9\nvalue = [0, 9]\nclass = y[1]"] ;
716 -> 752 ;
753 [label="variables <= 7.5\ngini = 0.46\nsamples = 64\nvalue = [41, 23]\nclass = y[0]"] ;
715 -> 753 ;
754 [label="distinct_features <= 14.5\ngini = 0.484\nsamples = 56\nvalue = [33, 23]\nclass = y[0]"] ;
753 -> 754 ;
755 [label="constants <= 6.5\ngini = 0.5\nsamples = 36\nvalue = [18, 18]\nclass = y[0]"] ;
754 -> 755 ;
756 [label="nodes_merged <= 27.5\ngini = 0.455\nsamples = 20\nvalue = [7, 13]\nclass = y[1]"] ;
755 -> 756 ;
757 [label="gini = 0.444\nsamples = 6\nvalue = [4, 2]\nclass = y[0]"] ;
756 -> 757 ;
758 [label="gini = 0.337\nsamples = 14\nvalue = [3, 11]\nclass = y[1]"] ;
756 -> 758 ;
759 [label="gini = 0.43\nsamples = 16\nvalue = [11, 5]\nclass = y[0]"] ;
755 -> 759 ;
760 [label="distinct_features <= 16.5\ngini = 0.375\nsamples = 20\nvalue = [15, 5]\nclass = y[0]"] ;
754 -> 760 ;
761 [label="gini = 0.332\nsamples = 19\nvalue = [15, 4]\nclass = y[0]"] ;
760 -> 761 ;
762 [label="gini = 0.0\nsamples = 1\nvalue = [0, 1]\nclass = y[1]"] ;
760 -> 762 ;
763 [label="gini = 0.0\nsamples = 8\nvalue = [8, 0]\nclass = y[0]"] ;
753 -> 763 ;
764 [label="nodes <= 94.0\ngini = 0.435\nsamples = 122\nvalue = [83, 39]\nclass = y[0]"] ;
608 -> 764 ;
765 [label="gini = 0.0\nsamples = 14\nvalue = [14, 0]\nclass = y[0]"] ;
764 -> 765 ;
766 [label="functions <= 23.5\ngini = 0.461\nsamples = 108\nvalue = [69, 39]\nclass = y[0]"] ;
764 -> 766 ;
767 [label="gini = 0.0\nsamples = 7\nvalue = [7, 0]\nclass = y[0]"] ;
766 -> 767 ;
768 [label="nodes <= 96.0\ngini = 0.474\nsamples = 101\nvalue = [62, 39]\nclass = y[0]"] ;
766 -> 768 ;
769 [label="gini = 0.408\nsamples = 7\nvalue = [2, 5]\nclass = y[1]"] ;
768 -> 769 ;
770 [label="nodes <= 104.0\ngini = 0.462\nsamples = 94\nvalue = [60, 34]\nclass = y[0]"] ;
768 -> 770 ;
771 [label="gini = 0.245\nsamples = 14\nvalue = [12, 2]\nclass = y[0]"] ;
770 -> 771 ;
772 [label="variables <= 8.5\ngini = 0.48\nsamples = 80\nvalue = [48, 32]\nclass = y[0]"] ;
770 -> 772 ;
773 [label="nodes <= 116.0\ngini = 0.477\nsamples = 79\nvalue = [48, 31]\nclass = y[0]"] ;
772 -> 773 ;
774 [label="gini = 0.498\nsamples = 17\nvalue = [8, 9]\nclass = y[1]"] ;
773 -> 774 ;
775 [label="distinct_features <= 15.5\ngini = 0.458\nsamples = 62\nvalue = [40, 22]\nclass = y[0]"] ;
773 -> 775 ;
776 [label="constants <= 4.5\ngini = 0.471\nsamples = 58\nvalue = [36, 22]\nclass = y[0]"] ;
775 -> 776 ;
777 [label="gini = 0.0\nsamples = 3\nvalue = [3, 0]\nclass = y[0]"] ;
776 -> 777 ;
778 [label="applications <= 10.5\ngini = 0.48\nsamples = 55\nvalue = [33, 22]\nclass = y[0]"] ;
776 -> 778 ;
779 [label="nodes_merged <= 33.5\ngini = 0.498\nsamples = 34\nvalue = [18, 16]\nclass = y[0]"] ;
778 -> 779 ;
780 [label="nodes <= 135.0\ngini = 0.466\nsamples = 27\nvalue = [17, 10]\nclass = y[0]"] ;
779 -> 780 ;
781 [label="nodes_merged <= 32.5\ngini = 0.453\nsamples = 26\nvalue = [17, 9]\nclass = y[0]"] ;
780 -> 781 ;
782 [label="gini = 0.355\nsamples = 13\nvalue = [10, 3]\nclass = y[0]"] ;
781 -> 782 ;
783 [label="gini = 0.497\nsamples = 13\nvalue = [7, 6]\nclass = y[0]"] ;
781 -> 783 ;
784 [label="gini = 0.0\nsamples = 1\nvalue = [0, 1]\nclass = y[1]"] ;
780 -> 784 ;
785 [label="gini = 0.245\nsamples = 7\nvalue = [1, 6]\nclass = y[1]"] ;
779 -> 785 ;
786 [label="functions <= 25.5\ngini = 0.408\nsamples = 21\nvalue = [15, 6]\nclass = y[0]"] ;
778 -> 786 ;
787 [label="gini = 0.0\nsamples = 2\nvalue = [0, 2]\nclass = y[1]"] ;
786 -> 787 ;
788 [label="gini = 0.332\nsamples = 19\nvalue = [15, 4]\nclass = y[0]"] ;
786 -> 788 ;
789 [label="gini = 0.0\nsamples = 4\nvalue = [4, 0]\nclass = y[0]"] ;
775 -> 789 ;
790 [label="gini = 0.0\nsamples = 1\nvalue = [0, 1]\nclass = y[1]"] ;
772 -> 790 ;
791 [label="functions <= 20.5\ngini = 0.42\nsamples = 60\nvalue = [18, 42]\nclass = y[1]"] ;
607 -> 791 ;
792 [label="variables <= 4.5\ngini = 0.33\nsamples = 48\nvalue = [10, 38]\nclass = y[1]"] ;
791 -> 792 ;
793 [label="gini = 0.0\nsamples = 17\nvalue = [0, 17]\nclass = y[1]"] ;
792 -> 793 ;
794 [label="nodes_merged <= 35.5\ngini = 0.437\nsamples = 31\nvalue = [10, 21]\nclass = y[1]"] ;
792 -> 794 ;
795 [label="applications <= 11.5\ngini = 0.491\nsamples = 23\nvalue = [10, 13]\nclass = y[1]"] ;
794 -> 795 ;
796 [label="gini = 0.0\nsamples = 2\nvalue = [2, 0]\nclass = y[0]"] ;
795 -> 796 ;
797 [label="nodes <= 96.0\ngini = 0.472\nsamples = 21\nvalue = [8, 13]\nclass = y[1]"] ;
795 -> 797 ;
798 [label="gini = 0.278\nsamples = 6\nvalue = [1, 5]\nclass = y[1]"] ;
797 -> 798 ;
799 [label="gini = 0.498\nsamples = 15\nvalue = [7, 8]\nclass = y[1]"] ;
797 -> 799 ;
800 [label="gini = 0.0\nsamples = 8\nvalue = [0, 8]\nclass = y[1]"] ;
794 -> 800 ;
801 [label="gini = 0.444\nsamples = 12\nvalue = [8, 4]\nclass = y[0]"] ;
791 -> 801 ;
802 [label="distinct_features <= 13.5\ngini = 0.467\nsamples = 744\nvalue = [468, 276]\nclass = y[0]"] ;
606 -> 802 ;
803 [label="gini = 0.375\nsamples = 12\nvalue = [3, 9]\nclass = y[1]"] ;
802 -> 803 ;
804 [label="applications <= 16.5\ngini = 0.463\nsamples = 732\nvalue = [465, 267]\nclass = y[0]"] ;
802 -> 804 ;
805 [label="nodes <= 184.0\ngini = 0.458\nsamples = 706\nvalue = [455, 251]\nclass = y[0]"] ;
804 -> 805 ;
806 [label="functions <= 15.5\ngini = 0.463\nsamples = 691\nvalue = [440, 251]\nclass = y[0]"] ;
805 -> 806 ;
807 [label="nodes_merged <= 45.5\ngini = 0.43\nsamples = 291\nvalue = [200, 91]\nclass = y[0]"] ;
806 -> 807 ;
808 [label="distinct_features <= 14.5\ngini = 0.45\nsamples = 251\nvalue = [165, 86]\nclass = y[0]"] ;
807 -> 808 ;
809 [label="nodes_merged <= 38.5\ngini = 0.165\nsamples = 22\nvalue = [20, 2]\nclass = y[0]"] ;
808 -> 809 ;
810 [label="gini = 0.0\nsamples = 17\nvalue = [17, 0]\nclass = y[0]"] ;
809 -> 810 ;
811 [label="gini = 0.48\nsamples = 5\nvalue = [3, 2]\nclass = y[0]"] ;
809 -> 811 ;
812 [label="variables <= 8.5\ngini = 0.465\nsamples = 229\nvalue = [145, 84]\nclass = y[0]"] ;
808 -> 812 ;
813 [label="nodes <= 82.0\ngini = 0.472\nsamples = 217\nvalue = [134, 83]\nclass = y[0]"] ;
812 -> 813 ;
814 [label="functions <= 10.5\ngini = 0.496\nsamples = 86\nvalue = [47, 39]\nclass = y[0]"] ;
813 -> 814 ;
815 [label="nodes_merged <= 38.5\ngini = 0.482\nsamples = 42\nvalue = [17, 25]\nclass = y[1]"] ;
814 -> 815 ;
816 [label="nodes_merged <= 37.5\ngini = 0.483\nsamples = 22\nvalue = [13, 9]\nclass = y[0]"] ;
815 -> 816 ;
817 [label="gini = 0.346\nsamples = 9\nvalue = [2, 7]\nclass = y[1]"] ;
816 -> 817 ;
818 [label="gini = 0.26\nsamples = 13\nvalue = [11, 2]\nclass = y[0]"] ;
816 -> 818 ;
819 [label="nodes_merged <= 42.5\ngini = 0.32\nsamples = 20\nvalue = [4, 16]\nclass = y[1]"] ;
815 -> 819 ;
820 [label="gini = 0.208\nsamples = 17\nvalue = [2, 15]\nclass = y[1]"] ;
819 -> 820 ;
821 [label="gini = 0.444\nsamples = 3\nvalue = [2, 1]\nclass = y[0]"] ;
819 -> 821 ;
822 [label="applications <= 9.5\ngini = 0.434\nsamples = 44\nvalue = [30, 14]\nclass = y[0]"] ;
814 -> 822 ;
823 [label="gini = 0.0\nsamples = 9\nvalue = [9, 0]\nclass = y[0]"] ;
822 -> 823 ;
824 [label="nodes_merged <= 37.5\ngini = 0.48\nsamples = 35\nvalue = [21, 14]\nclass = y[0]"] ;
822 -> 824 ;
825 [label="gini = 0.32\nsamples = 5\nvalue = [1, 4]\nclass = y[1]"] ;
824 -> 825 ;
826 [label="nodes <= 76.0\ngini = 0.444\nsamples = 30\nvalue = [20, 10]\nclass = y[0]"] ;
824 -> 826 ;
827 [label="gini = 0.346\nsamples = 18\nvalue = [14, 4]\nclass = y[0]"] ;
826 -> 827 ;
828 [label="gini = 0.5\nsamples = 12\nvalue = [6, 6]\nclass = y[0]"] ;
826 -> 828 ;
829 [label="nodes_merged <= 40.5\ngini = 0.446\nsamples = 131\nvalue = [87, 44]\nclass = y[0]"] ;
813 -> 829 ;
830 [label="variables <= 5.5\ngini = 0.368\nsamples = 70\nvalue = [53, 17]\nclass = y[0]"] ;
829 -> 830 ;
831 [label="nodes_merged <= 37.5\ngini = 0.234\nsamples = 37\nvalue = [32, 5]\nclass = y[0]"] ;
830 -> 831 ;
832 [label="gini = 0.494\nsamples = 9\nvalue = [4, 5]\nclass = y[1]"] ;
831 -> 832 ;
833 [label="gini = 0.0\nsamples = 28\nvalue = [28, 0]\nclass = y[0]"] ;
831 -> 833 ;
834 [label="constants <= 7.5\ngini = 0.463\nsamples = 33\nvalue = [21, 12]\nclass = y[0]"] ;
830 -> 834 ;
835 [label="functions <= 12.5\ngini = 0.408\nsamples = 28\nvalue = [20, 8]\nclass = y[0]"] ;
834 -> 835 ;
836 [label="gini = 0.5\nsamples = 10\nvalue = [5, 5]\nclass = y[0]"] ;
835 -> 836 ;
837 [label="gini = 0.278\nsamples = 18\nvalue = [15, 3]\nclass = y[0]"] ;
835 -> 837 ;
838 [label="gini = 0.32\nsamples = 5\nvalue = [1, 4]\nclass = y[1]"] ;
834 -> 838 ;
839 [label="distinct_features <= 18.5\ngini = 0.493\nsamples = 61\nvalue = [34, 27]\nclass = y[0]"] ;
829 -> 839 ;
840 [label="applications <= 12.5\ngini = 0.499\nsamples = 56\nvalue = [29, 27]\nclass = y[0]"] ;
839 -> 840 ;
841 [label="nodes <= 122.0\ngini = 0.452\nsamples = 29\nvalue = [10, 19]\nclass = y[1]"] ;
840 -> 841 ;
842 [label="nodes_merged <= 41.5\ngini = 0.496\nsamples = 22\nvalue = [10, 12]\nclass = y[1]"] ;
841 -> 842 ;
843 [label="gini = 0.0\nsamples = 4\nvalue = [0, 4]\nclass = y[1]"] ;
842 -> 843 ;
844 [label="gini = 0.494\nsamples = 18\nvalue = [10, 8]\nclass = y[0]"] ;
842 -> 844 ;
845 [label="gini = 0.0\nsamples = 7\nvalue = [0, 7]\nclass = y[1]"] ;
841 -> 845 ;
846 [label="nodes <= 94.0\ngini = 0.417\nsamples = 27\nvalue = [19, 8]\nclass = y[0]"] ;
840 -> 846 ;
847 [label="gini = 0.5\nsamples = 12\nvalue = [6, 6]\nclass = y[0]"] ;
846 -> 847 ;
848 [label="gini = 0.231\nsamples = 15\nvalue = [13, 2]\nclass = y[0]"] ;
846 -> 848 ;
849 [label="gini = 0.0\nsamples = 5\nvalue = [5, 0]\nclass = y[0]"] ;
839 -> 849 ;
850 [label="gini = 0.153\nsamples = 12\nvalue = [11, 1]\nclass = y[0]"] ;
812 -> 850 ;
851 [label="nodes <= 100.0\ngini = 0.219\nsamples = 40\nvalue = [35, 5]\nclass = y[0]"] ;
807 -> 851 ;
852 [label="distinct_features <= 19.5\ngini = 0.064\nsamples = 30\nvalue = [29, 1]\nclass = y[0]"] ;
851 -> 852 ;
853 [label="gini = 0.0\nsamples = 24\nvalue = [24, 0]\nclass = y[0]"] ;
852 -> 853 ;
854 [label="gini = 0.278\nsamples = 6\nvalue = [5, 1]\nclass = y[0]"] ;
852 -> 854 ;
855 [label="gini = 0.48\nsamples = 10\nvalue = [6, 4]\nclass = y[0]"] ;
851 -> 855 ;
856 [label="constants <= 6.5\ngini = 0.48\nsamples = 400\nvalue = [240, 160]\nclass = y[0]"] ;
806 -> 856 ;
857 [label="nodes <= 76.0\ngini = 0.443\nsamples = 175\nvalue = [117, 58]\nclass = y[0]"] ;
856 -> 857 ;
858 [label="gini = 0.0\nsamples = 5\nvalue = [0, 5]\nclass = y[1]"] ;
857 -> 858 ;
859 [label="nodes_merged <= 42.5\ngini = 0.429\nsamples = 170\nvalue = [117, 53]\nclass = y[0]"] ;
857 -> 859 ;
860 [label="nodes <= 116.0\ngini = 0.391\nsamples = 135\nvalue = [99, 36]\nclass = y[0]"] ;
859 -> 860 ;
861 [label="variables <= 4.5\ngini = 0.429\nsamples = 93\nvalue = [64, 29]\nclass = y[0]"] ;
860 -> 861 ;
862 [label="constants <= 4.5\ngini = 0.32\nsamples = 40\nvalue = [32, 8]\nclass = y[0]"] ;
861 -> 862 ;
863 [label="gini = 0.0\nsamples = 4\nvalue = [4, 0]\nclass = y[0]"] ;
862 -> 863 ;
864 [label="distinct_features <= 17.5\ngini = 0.346\nsamples = 36\nvalue = [28, 8]\nclass = y[0]"] ;
862 -> 864 ;
865 [label="nodes <= 113.0\ngini = 0.327\nsamples = 34\nvalue = [27, 7]\nclass = y[0]"] ;
864 -> 865 ;
866 [label="functions <= 22.5\ngini = 0.35\nsamples = 31\nvalue = [24, 7]\nclass = y[0]"] ;
865 -> 866 ;
867 [label="functions <= 20.5\ngini = 0.311\nsamples = 26\nvalue = [21, 5]\nclass = y[0]"] ;
866 -> 867 ;
868 [label="functions <= 19.5\ngini = 0.363\nsamples = 21\nvalue = [16, 5]\nclass = y[0]"] ;
867 -> 868 ;
869 [label="gini = 0.278\nsamples = 18\nvalue = [15, 3]\nclass = y[0]"] ;
868 -> 869 ;
870 [label="gini = 0.444\nsamples = 3\nvalue = [1, 2]\nclass = y[1]"] ;
868 -> 870 ;
871 [label="gini = 0.0\nsamples = 5\nvalue = [5, 0]\nclass = y[0]"] ;
867 -> 871 ;
872 [label="gini = 0.48\nsamples = 5\nvalue = [3, 2]\nclass = y[0]"] ;
866 -> 872 ;
873 [label="gini = 0.0\nsamples = 3\nvalue = [3, 0]\nclass = y[0]"] ;
865 -> 873 ;
874 [label="gini = 0.5\nsamples = 2\nvalue = [1, 1]\nclass = y[0]"] ;
864 -> 874 ;
875 [label="nodes <= 82.0\ngini = 0.478\nsamples = 53\nvalue = [32, 21]\nclass = y[0]"] ;
861 -> 875 ;
876 [label="gini = 0.0\nsamples = 3\nvalue = [0, 3]\nclass = y[1]"] ;
875 -> 876 ;
877 [label="functions <= 29.0\ngini = 0.461\nsamples = 50\nvalue = [32, 18]\nclass = y[0]"] ;
875 -> 877 ;
878 [label="functions <= 21.5\ngini = 0.44\nsamples = 46\nvalue = [31, 15]\nclass = y[0]"] ;
877 -> 878 ;
879 [label="nodes <= 105.0\ngini = 0.483\nsamples = 27\nvalue = [16, 11]\nclass = y[0]"] ;
878 -> 879 ;
880 [label="gini = 0.5\nsamples = 16\nvalue = [8, 8]\nclass = y[0]"] ;
879 -> 880 ;
881 [label="gini = 0.397\nsamples = 11\nvalue = [8, 3]\nclass = y[0]"] ;
879 -> 881 ;
882 [label="gini = 0.332\nsamples = 19\nvalue = [15, 4]\nclass = y[0]"] ;
878 -> 882 ;
883 [label="gini = 0.375\nsamples = 4\nvalue = [1, 3]\nclass = y[1]"] ;
877 -> 883 ;
884 [label="applications <= 11.5\ngini = 0.278\nsamples = 42\nvalue = [35, 7]\nclass = y[0]"] ;
860 -> 884 ;
885 [label="variables <= 4.5\ngini = 0.17\nsamples = 32\nvalue = [29, 3]\nclass = y[0]"] ;
884 -> 885 ;
886 [label="gini = 0.397\nsamples = 11\nvalue = [8, 3]\nclass = y[0]"] ;
885 -> 886 ;
887 [label="gini = 0.0\nsamples = 21\nvalue = [21, 0]\nclass = y[0]"] ;
885 -> 887 ;
888 [label="gini = 0.48\nsamples = 10\nvalue = [6, 4]\nclass = y[0]"] ;
884 -> 888 ;
889 [label="nodes_merged <= 43.5\ngini = 0.5\nsamples = 35\nvalue = [18, 17]\nclass = y[0]"] ;
859 -> 889 ;
890 [label="gini = 0.0\nsamples = 4\nvalue = [0, 4]\nclass = y[1]"] ;
889 -> 890 ;
891 [label="nodes <= 102.0\ngini = 0.487\nsamples = 31\nvalue = [18, 13]\nclass = y[0]"] ;
889 -> 891 ;
892 [label="gini = 0.219\nsamples = 8\nvalue = [7, 1]\nclass = y[0]"] ;
891 -> 892 ;
893 [label="distinct_features <= 17.5\ngini = 0.499\nsamples = 23\nvalue = [11, 12]\nclass = y[1]"] ;
891 -> 893 ;
894 [label="gini = 0.444\nsamples = 12\nvalue = [8, 4]\nclass = y[0]"] ;
893 -> 894 ;
895 [label="gini = 0.397\nsamples = 11\nvalue = [3, 8]\nclass = y[1]"] ;
893 -> 895 ;
896 [label="applications <= 10.5\ngini = 0.496\nsamples = 225\nvalue = [123, 102]\nclass = y[0]"] ;
856 -> 896 ;
897 [label="functions <= 29.0\ngini = 0.454\nsamples = 43\nvalue = [15, 28]\nclass = y[1]"] ;
896 -> 897 ;
898 [label="nodes <= 141.0\ngini = 0.42\nsamples = 40\nvalue = [12, 28]\nclass = y[1]"] ;
897 -> 898 ;
899 [label="distinct_features <= 18.5\ngini = 0.451\nsamples = 35\nvalue = [12, 23]\nclass = y[1]"] ;
898 -> 899 ;
900 [label="nodes_merged <= 48.0\ngini = 0.422\nsamples = 33\nvalue = [10, 23]\nclass = y[1]"] ;
899 -> 900 ;
901 [label="functions <= 17.0\ngini = 0.404\nsamples = 32\nvalue = [9, 23]\nclass = y[1]"] ;
900 -> 901 ;
902 [label="gini = 0.0\nsamples = 1\nvalue = [1, 0]\nclass = y[0]"] ;
901 -> 902 ;
903 [label="applications <= 9.5\ngini = 0.383\nsamples = 31\nvalue = [8, 23]\nclass = y[1]"] ;
901 -> 903 ;
904 [label="gini = 0.444\nsamples = 3\nvalue = [2, 1]\nclass = y[0]"] ;
903 -> 904 ;
905 [label="functions <= 21.0\ngini = 0.337\nsamples = 28\nvalue = [6, 22]\nclass = y[1]"] ;
903 -> 905 ;
906 [label="gini = 0.142\nsamples = 13\nvalue = [1, 12]\nclass = y[1]"] ;
905 -> 906 ;
907 [label="gini = 0.444\nsamples = 15\nvalue = [5, 10]\nclass = y[1]"] ;
905 -> 907 ;
908 [label="gini = 0.0\nsamples = 1\nvalue = [1, 0]\nclass = y[0]"] ;
900 -> 908 ;
909 [label="gini = 0.0\nsamples = 2\nvalue = [2, 0]\nclass = y[0]"] ;
899 -> 909 ;
910 [label="gini = 0.0\nsamples = 5\nvalue = [0, 5]\nclass = y[1]"] ;
898 -> 910 ;
911 [label="gini = 0.0\nsamples = 3\nvalue = [3, 0]\nclass = y[0]"] ;
897 -> 911 ;
912 [label="applications <= 12.5\ngini = 0.483\nsamples = 182\nvalue = [108, 74]\nclass = y[0]"] ;
896 -> 912 ;
913 [label="nodes <= 130.0\ngini = 0.422\nsamples = 66\nvalue = [46, 20]\nclass = y[0]"] ;
912 -> 913 ;
914 [label="nodes_merged <= 38.0\ngini = 0.213\nsamples = 33\nvalue = [29, 4]\nclass = y[0]"] ;
913 -> 914 ;
915 [label="gini = 0.48\nsamples = 5\nvalue = [3, 2]\nclass = y[0]"] ;
914 -> 915 ;
916 [label="nodes <= 95.0\ngini = 0.133\nsamples = 28\nvalue = [26, 2]\nclass = y[0]"] ;
914 -> 916 ;
917 [label="gini = 0.375\nsamples = 4\nvalue = [3, 1]\nclass = y[0]"] ;
916 -> 917 ;
918 [label="functions <= 31.5\ngini = 0.08\nsamples = 24\nvalue = [23, 1]\nclass = y[0]"] ;
916 -> 918 ;
919 [label="gini = 0.0\nsamples = 19\nvalue = [19, 0]\nclass = y[0]"] ;
918 -> 919 ;
920 [label="gini = 0.32\nsamples = 5\nvalue = [4, 1]\nclass = y[0]"] ;
918 -> 920 ;
921 [label="functions <= 27.0\ngini = 0.5\nsamples = 33\nvalue = [17, 16]\nclass = y[0]"] ;
913 -> 921 ;
922 [label="gini = 0.219\nsamples = 8\nvalue = [1, 7]\nclass = y[1]"] ;
921 -> 922 ;
923 [label="variables <= 5.5\ngini = 0.461\nsamples = 25\nvalue = [16, 9]\nclass = y[0]"] ;
921 -> 923 ;
924 [label="gini = 0.486\nsamples = 12\nvalue = [5, 7]\nclass = y[1]"] ;
923 -> 924 ;
925 [label="gini = 0.26\nsamples = 13\nvalue = [11, 2]\nclass = y[0]"] ;
923 -> 925 ;
926 [label="nodes <= 132.0\ngini = 0.498\nsamples = 116\nvalue = [62, 54]\nclass = y[0]"] ;
912 -> 926 ;
927 [label="functions <= 33.0\ngini = 0.486\nsamples = 60\nvalue = [25, 35]\nclass = y[1]"] ;
926 -> 927 ;
928 [label="variables <= 5.5\ngini = 0.499\nsamples = 52\nvalue = [25, 27]\nclass = y[1]"] ;
927 -> 928 ;
929 [label="gini = 0.0\nsamples = 4\nvalue = [4, 0]\nclass = y[0]"] ;
928 -> 929 ;
930 [label="nodes_merged <= 39.5\ngini = 0.492\nsamples = 48\nvalue = [21, 27]\nclass = y[1]"] ;
928 -> 930 ;
931 [label="gini = 0.219\nsamples = 8\nvalue = [1, 7]\nclass = y[1]"] ;
930 -> 931 ;
932 [label="variables <= 6.5\ngini = 0.5\nsamples = 40\nvalue = [20, 20]\nclass = y[0]"] ;
930 -> 932 ;
933 [label="gini = 0.278\nsamples = 6\nvalue = [1, 5]\nclass = y[1]"] ;
932 -> 933 ;
934 [label="nodes <= 125.0\ngini = 0.493\nsamples = 34\nvalue = [19, 15]\nclass = y[0]"] ;
932 -> 934 ;
935 [label="nodes <= 115.0\ngini = 0.499\nsamples = 31\nvalue = [16, 15]\nclass = y[0]"] ;
934 -> 935 ;
936 [label="distinct_features <= 14.5\ngini = 0.472\nsamples = 21\nvalue = [13, 8]\nclass = y[0]"] ;
935 -> 936 ;
937 [label="gini = 0.0\nsamples = 2\nvalue = [0, 2]\nclass = y[1]"] ;
936 -> 937 ;
938 [label="gini = 0.432\nsamples = 19\nvalue = [13, 6]\nclass = y[0]"] ;
936 -> 938 ;
939 [label="gini = 0.42\nsamples = 10\nvalue = [3, 7]\nclass = y[1]"] ;
935 -> 939 ;
940 [label="gini = 0.0\nsamples = 3\nvalue = [3, 0]\nclass = y[0]"] ;
934 -> 940 ;
941 [label="gini = 0.0\nsamples = 8\nvalue = [0, 8]\nclass = y[1]"] ;
927 -> 941 ;
942 [label="functions <= 25.5\ngini = 0.448\nsamples = 56\nvalue = [37, 19]\nclass = y[0]"] ;
926 -> 942 ;
943 [label="gini = 0.459\nsamples = 14\nvalue = [5, 9]\nclass = y[1]"] ;
942 -> 943 ;
944 [label="nodes <= 173.0\ngini = 0.363\nsamples = 42\nvalue = [32, 10]\nclass = y[0]"] ;
942 -> 944 ;
945 [label="distinct_features <= 14.5\ngini = 0.208\nsamples = 34\nvalue = [30, 4]\nclass = y[0]"] ;
944 -> 945 ;
946 [label="gini = 0.5\nsamples = 2\nvalue = [1, 1]\nclass = y[0]"] ;
945 -> 946 ;
947 [label="nodes_merged <= 48.0\ngini = 0.17\nsamples = 32\nvalue = [29, 3]\nclass = y[0]"] ;
945 -> 947 ;
948 [label="functions <= 30.5\ngini = 0.124\nsamples = 30\nvalue = [28, 2]\nclass = y[0]"] ;
947 -> 948 ;
949 [label="gini = 0.208\nsamples = 17\nvalue = [15, 2]\nclass = y[0]"] ;
948 -> 949 ;
950 [label="gini = 0.0\nsamples = 13\nvalue = [13, 0]\nclass = y[0]"] ;
948 -> 950 ;
951 [label="gini = 0.5\nsamples = 2\nvalue = [1, 1]\nclass = y[0]"] ;
947 -> 951 ;
952 [label="gini = 0.375\nsamples = 8\nvalue = [2, 6]\nclass = y[1]"] ;
944 -> 952 ;
953 [label="gini = 0.0\nsamples = 15\nvalue = [15, 0]\nclass = y[0]"] ;
805 -> 953 ;
954 [label="nodes_merged <= 46.5\ngini = 0.473\nsamples = 26\nvalue = [10, 16]\nclass = y[1]"] ;
804 -> 954 ;
955 [label="variables <= 7.5\ngini = 0.375\nsamples = 20\nvalue = [5, 15]\nclass = y[1]"] ;
954 -> 955 ;
956 [label="gini = 0.0\nsamples = 1\nvalue = [1, 0]\nclass = y[0]"] ;
955 -> 956 ;
957 [label="gini = 0.332\nsamples = 19\nvalue = [4, 15]\nclass = y[1]"] ;
955 -> 957 ;
958 [label="gini = 0.278\nsamples = 6\nvalue = [5, 1]\nclass = y[0]"] ;
954 -> 958 ;
959 [label="nodes <= 227.0\ngini = 0.331\nsamples = 43\nvalue = [9, 34]\nclass = y[1]"] ;
363 -> 959 ;
960 [label="nodes <= 137.0\ngini = 0.283\nsamples = 41\nvalue = [7, 34]\nclass = y[1]"] ;
959 -> 960 ;
961 [label="nodes_merged <= 43.5\ngini = 0.375\nsamples = 24\nvalue = [6, 18]\nclass = y[1]"] ;
960 -> 961 ;
962 [label="nodes <= 127.0\ngini = 0.245\nsamples = 21\nvalue = [3, 18]\nclass = y[1]"] ;
961 -> 962 ;
963 [label="gini = 0.188\nsamples = 19\nvalue = [2, 17]\nclass = y[1]"] ;
962 -> 963 ;
964 [label="gini = 0.5\nsamples = 2\nvalue = [1, 1]\nclass = y[0]"] ;
962 -> 964 ;
965 [label="gini = 0.0\nsamples = 3\nvalue = [3, 0]\nclass = y[0]"] ;
961 -> 965 ;
966 [label="gini = 0.111\nsamples = 17\nvalue = [1, 16]\nclass = y[1]"] ;
960 -> 966 ;
967 [label="gini = 0.0\nsamples = 2\nvalue = [2, 0]\nclass = y[0]"] ;
959 -> 967 ;
968 [label="nodes_merged <= 37.5\ngini = 0.5\nsamples = 2325\nvalue = [1128, 1197]\nclass = y[1]"] ;
362 -> 968 ;
969 [label="applications <= 13.5\ngini = 0.49\nsamples = 1244\nvalue = [536, 708]\nclass = y[1]"] ;
968 -> 969 ;
970 [label="nodes_merged <= 28.5\ngini = 0.494\nsamples = 1188\nvalue = [527, 661]\nclass = y[1]"] ;
969 -> 970 ;
971 [label="constants <= 1.5\ngini = 0.47\nsamples = 361\nvalue = [136, 225]\nclass = y[1]"] ;
970 -> 971 ;
972 [label="functions <= 6.5\ngini = 0.48\nsamples = 30\nvalue = [18, 12]\nclass = y[0]"] ;
971 -> 972 ;
973 [label="applications <= 3.5\ngini = 0.499\nsamples = 23\nvalue = [11, 12]\nclass = y[1]"] ;
972 -> 973 ;
974 [label="variables <= 4.5\ngini = 0.49\nsamples = 21\nvalue = [9, 12]\nclass = y[1]"] ;
973 -> 974 ;
975 [label="gini = 0.465\nsamples = 19\nvalue = [7, 12]\nclass = y[1]"] ;
974 -> 975 ;
976 [label="gini = 0.0\nsamples = 2\nvalue = [2, 0]\nclass = y[0]"] ;
974 -> 976 ;
977 [label="gini = 0.0\nsamples = 2\nvalue = [2, 0]\nclass = y[0]"] ;
973 -> 977 ;
978 [label="gini = 0.0\nsamples = 7\nvalue = [7, 0]\nclass = y[0]"] ;
972 -> 978 ;
979 [label="applications <= 3.5\ngini = 0.459\nsamples = 331\nvalue = [118, 213]\nclass = y[1]"] ;
971 -> 979 ;
980 [label="functions <= 11.0\ngini = 0.077\nsamples = 25\nvalue = [1, 24]\nclass = y[1]"] ;
979 -> 980 ;
981 [label="gini = 0.0\nsamples = 24\nvalue = [0, 24]\nclass = y[1]"] ;
980 -> 981 ;
982 [label="gini = 0.0\nsamples = 1\nvalue = [1, 0]\nclass = y[0]"] ;
980 -> 982 ;
983 [label="nodes <= 38.0\ngini = 0.472\nsamples = 306\nvalue = [117, 189]\nclass = y[1]"] ;
979 -> 983 ;
984 [label="gini = 0.426\nsamples = 13\nvalue = [9, 4]\nclass = y[0]"] ;
983 -> 984 ;
985 [label="variables <= 6.5\ngini = 0.465\nsamples = 293\nvalue = [108, 185]\nclass = y[1]"] ;
983 -> 985 ;
986 [label="functions <= 17.5\ngini = 0.473\nsamples = 274\nvalue = [105, 169]\nclass = y[1]"] ;
985 -> 986 ;
987 [label="functions <= 10.5\ngini = 0.479\nsamples = 257\nvalue = [102, 155]\nclass = y[1]"] ;
986 -> 987 ;
988 [label="lambdas <= 1.5\ngini = 0.456\nsamples = 202\nvalue = [71, 131]\nclass = y[1]"] ;
987 -> 988 ;
989 [label="distinct_features <= 14.5\ngini = 0.479\nsamples = 141\nvalue = [56, 85]\nclass = y[1]"] ;
988 -> 989 ;
990 [label="nodes <= 56.0\ngini = 0.488\nsamples = 128\nvalue = [54, 74]\nclass = y[1]"] ;
989 -> 990 ;
991 [label="applications <= 6.5\ngini = 0.467\nsamples = 94\nvalue = [35, 59]\nclass = y[1]"] ;
990 -> 991 ;
992 [label="distinct_features <= 13.5\ngini = 0.493\nsamples = 68\nvalue = [30, 38]\nclass = y[1]"] ;
991 -> 992 ;
993 [label="nodes_merged <= 24.5\ngini = 0.5\nsamples = 57\nvalue = [28, 29]\nclass = y[1]"] ;
992 -> 993 ;
994 [label="functions <= 4.5\ngini = 0.485\nsamples = 41\nvalue = [17, 24]\nclass = y[1]"] ;
993 -> 994 ;
995 [label="gini = 0.0\nsamples = 2\nvalue = [2, 0]\nclass = y[0]"] ;
994 -> 995 ;
996 [label="constants <= 2.5\ngini = 0.473\nsamples = 39\nvalue = [15, 24]\nclass = y[1]"] ;
994 -> 996 ;
997 [label="gini = 0.32\nsamples = 10\nvalue = [2, 8]\nclass = y[1]"] ;
996 -> 997 ;
998 [label="constants <= 4.5\ngini = 0.495\nsamples = 29\nvalue = [13, 16]\nclass = y[1]"] ;
996 -> 998 ;
999 [label="nodes <= 51.0\ngini = 0.5\nsamples = 24\nvalue = [12, 12]\nclass = y[0]"] ;
998 -> 999 ;
1000 [label="nodes_merged <= 18.5\ngini = 0.499\nsamples = 23\nvalue = [11, 12]\nclass = y[1]"] ;
999 -> 1000 ;
1001 [label="gini = 0.0\nsamples = 1\nvalue = [1, 0]\nclass = y[0]"] ;
1000 -> 1001 ;
1002 [label="nodes_merged <= 19.5\ngini = 0.496\nsamples = 22\nvalue = [10, 12]\nclass = y[1]"] ;
1000 -> 1002 ;
1003 [label="gini = 0.0\nsamples = 2\nvalue = [0, 2]\nclass = y[1]"] ;
1002 -> 1003 ;
1004 [label="nodes_merged <= 21.5\ngini = 0.5\nsamples = 20\nvalue = [10, 10]\nclass = y[0]"] ;
1002 -> 1004 ;
1005 [label="gini = 0.375\nsamples = 4\nvalue = [3, 1]\nclass = y[0]"] ;
1004 -> 1005 ;
1006 [label="gini = 0.492\nsamples = 16\nvalue = [7, 9]\nclass = y[1]"] ;
1004 -> 1006 ;
1007 [label="gini = 0.0\nsamples = 1\nvalue = [1, 0]\nclass = y[0]"] ;
999 -> 1007 ;
1008 [label="gini = 0.32\nsamples = 5\nvalue = [1, 4]\nclass = y[1]"] ;
998 -> 1008 ;
1009 [label="gini = 0.43\nsamples = 16\nvalue = [11, 5]\nclass = y[0]"] ;
993 -> 1009 ;
1010 [label="gini = 0.298\nsamples = 11\nvalue = [2, 9]\nclass = y[1]"] ;
992 -> 1010 ;
1011 [label="constants <= 5.5\ngini = 0.311\nsamples = 26\nvalue = [5, 21]\nclass = y[1]"] ;
991 -> 1011 ;
1012 [label="nodes_merged <= 26.5\ngini = 0.219\nsamples = 24\nvalue = [3, 21]\nclass = y[1]"] ;
1011 -> 1012 ;
1013 [label="gini = 0.0\nsamples = 8\nvalue = [0, 8]\nclass = y[1]"] ;
1012 -> 1013 ;
1014 [label="gini = 0.305\nsamples = 16\nvalue = [3, 13]\nclass = y[1]"] ;
1012 -> 1014 ;
1015 [label="gini = 0.0\nsamples = 2\nvalue = [2, 0]\nclass = y[0]"] ;
1011 -> 1015 ;
1016 [label="functions <= 9.5\ngini = 0.493\nsamples = 34\nvalue = [19, 15]\nclass = y[0]"] ;
990 -> 1016 ;
1017 [label="applications <= 7.5\ngini = 0.444\nsamples = 24\nvalue = [16, 8]\nclass = y[0]"] ;
1016 -> 1017 ;
1018 [label="gini = 0.494\nsamples = 18\nvalue = [10, 8]\nclass = y[0]"] ;
1017 -> 1018 ;
1019 [label="gini = 0.0\nsamples = 6\nvalue = [6, 0]\nclass = y[0]"] ;
1017 -> 1019 ;
1020 [label="gini = 0.42\nsamples = 10\nvalue = [3, 7]\nclass = y[1]"] ;
1016 -> 1020 ;
1021 [label="gini = 0.26\nsamples = 13\nvalue = [2, 11]\nclass = y[1]"] ;
989 -> 1021 ;
1022 [label="nodes <= 60.0\ngini = 0.371\nsamples = 61\nvalue = [15, 46]\nclass = y[1]"] ;
988 -> 1022 ;
1023 [label="nodes_merged <= 23.5\ngini = 0.45\nsamples = 41\nvalue = [14, 27]\nclass = y[1]"] ;
1022 -> 1023 ;
1024 [label="gini = 0.0\nsamples = 7\nvalue = [0, 7]\nclass = y[1]"] ;
1023 -> 1024 ;
1025 [label="nodes_merged <= 27.5\ngini = 0.484\nsamples = 34\nvalue = [14, 20]\nclass = y[1]"] ;
1023 -> 1025 ;
1026 [label="functions <= 6.5\ngini = 0.491\nsamples = 23\nvalue = [13, 10]\nclass = y[0]"] ;
1025 -> 1026 ;
1027 [label="gini = 0.0\nsamples = 5\nvalue = [5, 0]\nclass = y[0]"] ;
1026 -> 1027 ;
1028 [label="gini = 0.494\nsamples = 18\nvalue = [8, 10]\nclass = y[1]"] ;
1026 -> 1028 ;
1029 [label="gini = 0.165\nsamples = 11\nvalue = [1, 10]\nclass = y[1]"] ;
1025 -> 1029 ;
1030 [label="distinct_features <= 12.5\ngini = 0.095\nsamples = 20\nvalue = [1, 19]\nclass = y[1]"] ;
1022 -> 1030 ;
1031 [label="gini = 0.219\nsamples = 8\nvalue = [1, 7]\nclass = y[1]"] ;
1030 -> 1031 ;
1032 [label="gini = 0.0\nsamples = 12\nvalue = [0, 12]\nclass = y[1]"] ;
1030 -> 1032 ;
1033 [label="applications <= 4.5\ngini = 0.492\nsamples = 55\nvalue = [31, 24]\nclass = y[0]"] ;
987 -> 1033 ;
1034 [label="gini = 0.219\nsamples = 8\nvalue = [1, 7]\nclass = y[1]"] ;
1033 -> 1034 ;
1035 [label="nodes <= 67.0\ngini = 0.462\nsamples = 47\nvalue = [30, 17]\nclass = y[0]"] ;
1033 -> 1035 ;
1036 [label="variables <= 5.5\ngini = 0.498\nsamples = 30\nvalue = [16, 14]\nclass = y[0]"] ;
1035 -> 1036 ;
1037 [label="nodes_merged <= 27.5\ngini = 0.49\nsamples = 28\nvalue = [16, 12]\nclass = y[0]"] ;
1036 -> 1037 ;
1038 [label="nodes <= 60.0\ngini = 0.5\nsamples = 22\nvalue = [11, 11]\nclass = y[0]"] ;
1037 -> 1038 ;
